-0.9619758022349614,0.29244143749147744,-0.9578744477998689,-0.2797828821981838,0.8778320635958412,-0.3168484962718916,-0.4592332716936398,-0.10203621200698931,0.24302148800625,-0.19935529565683763,-0.7308872315817962,-0.8641099937561034,0.005600677743879956,0.44253553841648086,-0.5123220449637036,0.7201367802810732,0.3674127412005521,0.2093808670598818,-0.5427488096424056,-0.40472691441541175,-0.817784619836623,-0.40448954903928525,0.8602313206827932,0.36805220584818255,0.19880414556613712,0.8122355853296854,0.364296843495981,0.365145547868333,0.8602273784429444,0.9573520584528845,0.7946774001088277,-0.20923037239054443,-0.11567777016371461,-0.12125528545120115,0.8853679468801863,-0.8348837764040012,0.09095151495648383,-0.22346246878339165,0.3811748287283092,0.01867027431660499,0.8759746433418305,0.059199019915683326,-0.15581479589025876,-0.560796155840019,0.9743312815107024,0.9876290199925661,-0.28391635670674276,-0.44034810612370023,0.6739831737289722,0.11281020611394088,0.2287188635310271,-0.3886050611931988,-0.25280225464643347,-0.46550949855382506,-0.07315823836862645,0.4373909644278855,-0.6895545313171729,-0.9184783952567945,-0.9128389819011236,0.9919155019242318,-0.46147319912483376,-0.5269523048817051,-0.17715283599608275,-0.9885541768085911,-0.32546034001188756,0.21360625705093123,0.5347750820191545,-0.5386206930779325,-0.32729928733306846,0.7865905141824426,-0.7287329976911227,0.301653415984039,0.10880452964158724,0.33130187289989554,-0.46665295654272065,0.9037889118166896,0.26013007038682023,-0.9341575714067667,-0.38307298807959717,0.9499762776191846,0.9481792374379876,0.35319289031469014,-0.9794916858785561,-0.5137650137237648,-0.3064176888472594,0.48356854194720356,0.9872088864665389,0.793760394703868,-0.49265122356413166,0.4749686256512383,0.2191971949640301,0.3298051433868496,0.030565703191517142,0.041415744408840584,0.7260420787054778,0.7517026004325793,-0.6968044134810137,0.24045407848029682,0.21009706655577118,-0.4868825365442431,-0.46657497517785795,-0.4860013195579292,0.7715972248947512,0.8818590637869089,0.9815011601930115,0.9960547289440738,-0.019467885395006265,-0.11278861363965174,0.29318772400322735,-0.04035000528354855,0.30342430398291387,0.4880226170795712,-0.5934447429077165,0.18987482402609568,-0.05358635071859852,-0.48186866846341725,0.4541819489088318,-0.7705109870446714,-0.7778878996581926,0.6829745037974867,0.2794061127010341,-0.39310226656090397,-0.37064872642070495,0.15696793841007414,-0.6344072077108327,-0.29149812786388235,-0.8092034554690504,-1.3322214349086905,0.17847666173004245,0.5562251786328483,0.16303828492371666,0.9625422296922901,-0.5665017566858656,0.48324704198488244,-0.46996014148648463,-0.002440954651556778,0.992987729551981,0.45029953312587995,0.1732634089547664,-0.06385036172975478,-0.6026773156678558,-0.27454285459509137,0.4945460255041447,0.867366580035507,0.7397978865344322,-0.7663542820206637,0.7375458679316387,0.7485318709926962,-0.21194571436354287,0.2819267261019479,0.1888128765862026,0.6492227928193838,-1.469861440872094,-1.7827671208713047,-0.13440325497518235,-0.8806709156445875,-1.2618656347757713,0.6228565383378031,0.4756642750420841,0.7520621626606012,-0.5255133431753464,0.5427595444401868,-0.33349141661494985,-0.1364474969551949,-0.4450733817688788,-0.29918004362560835,-0.2628507533601237,0.14515564002772652,-0.14878196043861225,-0.025951584013772067,-0.07226760929265028,0.7909908827818268,-0.37420780618038946,0.5078679377423712,-0.3953313153421836,0.7801708531987473,1.2892064909482641,0.7922078070409323,-0.21641468911875733,0.010619559563147226,-0.31836721461860396,-1.1825566148962308,-0.03632608120297601,-0.7368657934138982,0.8570761223034441,-0.8221159505402976,-0.7138044633056227,-0.2447736627292217,-1.0289040725282148,-0.08294843225387935,0.27103096604310484,-0.4864448865428367,-0.6969056989527977,0.2850584502760244,1.0078709281806355,0.42797882567196743,-0.22475935936141522,-0.9129215988638699,-0.043356236582024865,-0.052444715753087755,-0.968552370047067,-0.7922207029639873,0.5348229368274672,-0.7395050795171433,0.9258354401971588,-0.5010866870960297,-0.18722866168362398,-0.8409602168304302,-0.44385713280518874,-0.8116086302255348,-0.911934258422641,0.6878093060837853,-1.4656875019601483,0.17303180892118175,0.127480704067861,0.4507979333603728,0.8468301254339624,0.42302841666810664,-1.0644787729956924,-0.18190792299123065,-0.8377787713710194,-0.04034148762809259,0.6207107912931078,0.14651627549049595,0.3611958893376159,0.20279125370091292,0.9821316755648268,0.31646551191246425,0.37901510809216604,0.5212131726997576,0.7187441574443891,-0.046836171758457175,-0.014100293925091174,0.15389303845465963,-0.6578279176471569,0.21222355390967368,-1.040963100561696,0.08820221149338366,-1.4010238157998915,-0.9264879648436604,-0.49243814445841066,-0.018756781026101572,0.27324025374869354,-0.5998830133127899,1.1207981177153568,-0.8372434791765171,-0.42839579251796484,0.8211862035174152,0.4677094657134972,-0.759917560913338,-0.5526009844582986,-0.6365751931050981,-0.8649123026458009,-0.1571251668693155,-0.2249850625019939,0.013196255781850613,0.24422482323893116,-0.9900706880510901,0.7108606297420158,0.8033031545472236,-0.607540268110461,0.31370097050416185,-0.6463218907314298,-0.47875058791065356,-1.365516627200318,-0.39839409897146727,-0.6990187030860797,0.7813717854225743,0.5857351896264005,0.20878198910146764,0.7766158560192697,0.024036947014469158,-0.710413842377063,1.111998507741108,0.7354392060389169,0.8728718088426952,0.3110113451415255,-0.1486978821713168,1.0635848843269582,0.9533572797609424,0.19796251693225242,0.7236234498451873,0.15329140899609958,-0.3104350705574815,-0.3058039661860921,-0.8191096816615806,0.44083498026687523,-0.9049717716306752,-0.6622449475088448,-0.6665672743952562,0.28932615631992153,0.4844510792705762,-0.6015250508426311,0.6117334783650289,0.242364812823545,-0.7416937050027276,-0.26915766644944156,0.21513760550057898,-0.17819288575984324,-0.6891587588223191,0.5246084510601409,-0.6927209450578293,-0.22012485831664802,0.5346792801615513,0.20367384525678767,0.5808768592644492,0.7412228597760546,0.6827504108179631,-0.010699319720261318,-0.43959570063998427,-0.22736947359934384,0.2039546462465387,0.13211365848940854,-0.7488420203851908,0.02283476311309909,0.3721841886389802,0.7484262890395325,0.635742830263376,0.6707782441577333,-0.9313475610018926,-0.3615103134656918,0.31848301149717057,-0.8612417477047484,0.11013462717833573,0.41074425691557553,-0.9808253906598382,-0.33878918874634895,-1.043388754184703,-0.47481215579038233,0.3733686546153227,-0.9172322960326597,-0.022070993386424754,-0.4631724155642359,0.5786272124898012,-1.0347056466986428,-0.6917326124699761,-0.976869771937463,-0.40108191630857204,-0.7499480612402202,0.848315377674228,-0.700190336122491,0.7136188672404338,-0.012689092857983865,0.3980263233420148,0.6892979031389455,-0.6518769135826343,0.6235970243502544,-0.1066498432025592,0.7392174203617171,0.37911828553368127,0.8409197106238246,-0.2598688481901628,0.13747397014451415,0.27669934653642003,-0.6038457546557806,0.36121974362563525,-1.0728674334824013,-0.9690469270544547,0.049466125182296455,0.41507479097783406,0.07189714313215478,0.5935403121949433,0.8283452022751863,0.03787600188377338,0.6773429645535531,-0.18301696598069994,-0.6030624723356985,-0.36606146827344416,-0.4877759313976198,0.11600049534798006,-0.44039461845052424,1.0967302698039758,0.08273231934396617,0.6371259185294026,0.7079718088213934,0.5878386454283993,0.6478994540520875,-0.5338665376717409,0.8960655689965669,0.11919202380417498,-0.22779886314959483,1.268884914203192,1.1004547739141102,-0.8856161642183387,-0.3480551837714086,0.35508146146165814,0.14683798503977785,-0.6267207843622425,0.04907620976513046,0.6103823654134236,0.8772986417728044,0.7269120224222749,0.11965988937580896,-0.4396191954962305,0.548001859268579,0.8851635970025187,-0.3781741263713091,1.0075686183699075,0.3417304539161266,-0.8589106260109175,-0.4717057475303582,-0.39897706372112074,-0.04431166353620333,0.6065477565697981,0.9807329307118638,-0.403461427410057,0.8470675870715099,-0.04974054468731269,0.3525925980636737,-0.6753668747060728,-0.1423556186591585,0.4754088426632039,1.1151547185796562,-0.589630917168596,1.20956687785994,-0.937604204498708,0.8440143440864502,-0.9121107947041841,-0.36846262039206973,-0.8346731298948844,0.5481115054829189,-0.24845328164669667,-0.3333282549423881,0.11890339495176597,0.14316054221786326,-0.26284903341017146,-0.29964297992014505,0.35901862819513475,0.7345399435851993,-0.10604874882986469,-0.32426756908270704,0.7900177561860277,0.1385308225917044,-0.16736899822172618,0.7193423156290475,-0.8622511552738105,0.5498472161948216,-0.9449697377667242,0.17071538445194798,0.1288793297026473,1.2497436142469394,0.4113588491963117,-0.3094803847259038,0.6085689213513368,0.33490709341295066,0.1302585014401117,0.02515298562214619,0.194822410843651,0.4329264475110979,0.04150240114784765,0.8672289901241544,-0.781659329397818,-0.3734471506769005,1.0095125268438703,0.20579271080707126,0.4567941109270802,0.36434784401478293,-0.4596012527345163,-0.4936614191627471,0.1681805062180474,1.0316471875589819,-0.2061772304531821,0.7846998615064722,-0.8949595421712948,-0.8851534188653138,0.8302625053066027,-0.13012474178769218,-0.3198362523300897,-0.43460444284288297,0.07365944222176564,-0.11748682383721386,0.5370919794575301,-0.3629107977691282,0.47588716903070827,-0.30079145237879135,-0.039534434949888474,-0.29714945144559834,0.6005970549555442,-0.5935282824999084,0.26593310467448056,-0.45220407258557743,-0.4118206983059303,-1.0828555090345735,-0.5763435772811502,-0.3712780931696586,-1.0626331102050794,0.9187740801789905,-0.26930346356080537,0.7866804596107974,0.6837496518501355,-0.10408278934198391,-0.1812581268138492,0.33500118669046874,-0.6107545382707222,-0.3162433327333373,-0.14251695317989463,-0.6272332378118326,0.9199907669699301,-0.019891439567464878,0.2578479391104605,-0.8396892471312707,-0.9246905751224692,-0.31600139892292717,-0.253679506413664,-0.04716999790137866,0.5148936307460718,-0.8918042653625201,-0.9626859732145978,-0.7826138129442909,-1.2060682540082177,0.6757911025764396,-0.44972029293206883,-0.3811894865638865,0.7418173601669558,0.14442797804259072,0.30402669590967807,-0.6700982454348796,-0.511379084692375,0.7190205718967847,0.5510455330705375,-0.028327741739570134,-0.5201733417634531,-0.6363592485405621,0.38427351531642384,-0.005397912721075501,0.3816490900799453,-0.2424281238053985,-0.5074857847761909,0.8300643254511061,0.5450493123415547,-0.19571284590688895,-0.8880584603623678,0.9210016110365218,-0.40278064315900014,0.5924147459331363,-0.8969637909583182,-0.194145586569184,-0.5050825754333532,-0.4483779870032377,0.162476910964712,-0.4326269976420576,-0.39671061522510526,0.757726965181363,0.22508396622874738,-0.6737808319739075,-0.17425922058397464,-0.6036264252507058,0.5766542897712518,-0.4258770146344892,0.9435822972311211,-1.2159564871763437,-0.45010552710610097,-0.48982215268586876,-0.6829035672169722,0.4659243869328305,-0.42206508414584604,0.06041743923015248,-1.0647998115335124,-0.8775615095646464,-0.1550519392143025,0.40742882419567894,0.939236173422658,-0.45939839488388307,0.763353086573839,0.7527493356693634,-0.8774570676865049,0.312817692249056,0.0534589265847981,-0.5980382650882579,-0.6185181484886928,-0.4610226100312007,-0.6466252546711552,-0.21984217639602696,0.29201624083048094,0.07996674075192603,-0.397994099360215,0.7818749096659492,0.5736466976979527,-0.14134461155185463,0.23517724376440666,0.5717192747450909,0.6628008071831646,0.12960715292461894,-0.09353877680023491,0.5861307106090788,-0.9859422719061517,-0.9449990480546013,-0.7877807697366355,0.5597826349336787,0.464211951309482,0.7873894933746384,0.3879058917855829,-0.09351166757830125,-0.5144143532094239,0.3053617252330537,0.20849927182339592,0.362421152607697,-0.19659495323227094,0.2724293871997395,0.17046592206880645,-0.29579709818900696,0.3450631583782001,-0.7172766063310482,0.23639795461586857,0.02108004517040209,0.3565558588985987,-1.310619651508961,0.35203262669586854,0.5458993566683217,0.39513596715088023,-0.5981271634483615,0.020100317023628394,-0.008331622936543626,0.12016262645107703,-0.10999238127255621,0.7253935636507829,-0.8637992557476395,0.4829838308727916,-0.6651802955547277,-0.5832726991714777,-0.5233071571720534,-1.0361633778671626,0.0168349465762944,0.7663273229427159,-0.083349537138435,-0.3989238071910712,-0.6253359503974967,0.2297552164438514,0.3161099605414898,-0.10306852210286774,-0.9626686819142143,-0.03151437404699207,-0.004011868458196515,-0.33961866112357764,-0.10579823336343992,0.17287910412808097,0.5771072390752465,-0.36477117016607363,0.7682811924873321,0.018462734914816405,-0.09453779578407222,-0.19807436039095985,0.9817655298601725,-0.1653063196350557,0.9864585124286773,0.43758826551514335,-0.44277686876695943,-0.35855943906222876,-0.05147563273369264,-0.05344967717818835,0.11971230028550615,-0.3967459143738604,0.37316279150975495,1.0314904148828363,0.6671577656012783,-0.9355491188709242,0.7346767718393347,0.44673821517613604,0.09051862950405686,-0.17292764239601535,-0.6349069396653958,-0.7272912091094618,-0.14721830022559187,0.16399936966936027,0.08545652179605126,0.8996334448617687,-0.9436248200593231,0.42315074469793307,-0.6692611425695447,0.9690613204196323,-0.4023957330300705,0.911178672239322,0.20881307872574406,-0.4924740429724459,0.7903789596862376,0.536991706349684,0.45079708001601876,0.11725719343401031,-0.41439759921129066,-0.35722094111750896,-0.11835435031565354,0.8568865464978392,-0.7336317834922796,0.7929089374316183,-0.6457971836424604,-0.1479788242695829,0.11856137888148278,0.5093271498170845,0.2382980432022255,-0.2953530997295374,0.18288285768244045,0.8846449320274881,-0.14656053289321058,-0.6809265481896501,0.7144694568503163,0.419326471505353,0.4373056131493115,0.3230298010383258,-0.24377510914869616,0.06924205428007402,-0.8264389579175184,0.912933647652995,0.8941590885205464,-0.4717583087602611,0.27482034161965735,0.04620263312056074,0.2782593798736221,0.5091657080108454,0.22983306067065873,-0.09941827109873887,-0.17260870390634736,0.7256572145216331,0.08647557854994098,0.1902322908113972,0.23136290848907196,0.3322533955867058,-0.07149229271132519,0.7641555462158586,0.5245578789134233,-0.20873751985836148,-0.3353118407583129,0.5406093126724532,0.7516561804710651,-0.8221127632407491,0.42956706837968167,-0.485448388934412,0.6055462243844922,0.1311255847772792,-0.02737558042161936,-0.280568596037444,0.7041744992480476,-0.48042490850868425,0.6616584753396856,0.2337154511914048,-0.20309322686005493,0.24708553613600942,0.6169946745654666,-0.19314440389811646,-0.1631313802085124,0.46133634356416187,-0.7801235511385726,-0.40872118913266403,-0.6757631068924961,0.5419966486136744,-0.5420444943947913,0.4376457764525031,-0.840244388026032,0.3319508976276169,-0.011077584549546042,0.35698479864207405,0.06093922963066404,0.6816799390084931,0.39491744341456464,0.31779314184431984,-0.7933942831997243,0.7841489096920176,0.33411035355085894,-0.9320913960943178,0.9269858732841048,-0.03220618850852697,0.3709679017439065,0.46762897943743886,0.791282620837883,0.10832983346435246,-0.9942747442729583,0.9120893265693298,0.7074410810461322,-0.9378460429787644,-0.7437496077562147,-0.3208924088963391,0.8387014401110279,-0.39532923816755167,0.9424799457051388,-0.015763647354105872,0.5050318992814445,-0.016543279387576562,0.17832921561832268,0.20410228738472666,-0.7214229191515538,0.3685654253464161,-0.8814769555435369,0.41096765874232255,-0.08628002722050665,0.2113086759810412,0.4414819825824785,-0.002632927133710883,-0.5668685746945952,-0.4357739075396492,0.8218895397470274,0.44895126981708877,0.2530199593509552,0.6955077082000689,-0.07207804914369587,0.14618283457776315,0.9199612923779235,-0.5325691983027767,0.03682929211639019,0.829641811152535,-0.5540269268345692,-0.09873995216994458,-0.45122443827805636,-0.8769374558805256,0.6341375361301347,0.1791261465467393,0.2298679881220531,-0.23314632251591716,-0.9957602237317322,-0.8757463229371654,0.20023748714011758,-0.30657999472523234,0.26984841854130814,0.589266141847737,-0.6492833923948325,0.7767737371858086,-0.04909704728297615,0.5109053673725925,0.559141251519341,0.5584924019782127,0.22609870311637476,-0.9168849313023474,-0.6280560179657515,0.5497025717443086,0.8983814624349769,0.7322194873431404,-0.9195213700915391,-0.030993569703106745,-0.8122465087406234,0.681344930817452,-0.20611653668453198,0.8162813537694272,-0.580799287627546,0.29251312655670764,0.35305811254465924,0.8557010702196841,0.6643258448013576,-0.30102967051468665,-0.9374022664380548,-0.12280653697213917,0.4163624626251481,-0.06932840327083256,-0.3968627340432238,0.17438619911630093,0.1872121755090932,0.1968255176502165,-0.7779422599281816,0.7942405210812044,-0.7393883136053964,0.10944438975914421,0.5023500765624804,-0.15235432603560964,-0.9812416867917964,-0.5141446138723255,0.42506521067105446,0.03766085751729474,0.5913506751467033,-0.1019781400753629,0.33926420553763903,-0.7729501452753925,0.8467713688026229,-0.6794609173130367,0.1980291470622331,-0.9083592555502492,0.5742329080764035,0.990027568365829,-0.3560847702006796,-0.6965615882877254,-0.9016409432914656,-0.8177764795357771,-0.24599081668179745,-0.9562516763257829,0.28265663320846013,0.6719750925193269,0.5930548841105193,-0.2469256110381683,0.7025036144247006,0.6291003069822176,0.15102191062441844,0.24606912971588205,-0.2747413603308318,-0.27071536125514006,-1.20774048036962,0.03582632771719742,0.27457344714920046,-0.2309899273854279,0.04184441179393775,-1.255222023815922,0.39145168996763163,-0.39436404104903816,-0.5016399871347776,-0.7501653600544699,-0.4743961812622623,0.3582725036691664,-0.22023882494027225,0.18879475120358075,0.2873639464990134,-0.4861786312783154,-0.26114376761701386,0.6641391799132534,0.3482265291020219,-0.8828389116339468,0.942891233287374,0.10073637204535717,0.7649560796824969,0.31426472573250297,-0.7514190887166782,-0.35838541156293474,0.9150209121695035,0.38553763175058264,-0.8729857215146908,0.48293741847199995,-0.3085839323593547,0.2452583601787674,-0.9341516699565058,-0.21207794114533832,0.21623474760253109,0.5354054746640113,-0.3762405999418621,0.7370346252912918,-0.1658742334268239,0.7888570539235737,0.6780556278448928,0.5101227928324622,-0.6025010215099271,0.8719987671184273,-0.48817088958314336,-0.8425766545096199,0.03890677940600845,-0.2789676843046161,0.5599277397098091,-0.6553113475118846,0.07232366803745988,0.4385438278700857,-0.09798070468512154,-0.11504647645275273,-0.6411711462485352,-0.9167988131293908,0.2204652106088899,-1.1936870297787459,0.30829086978728276,-0.23325919437494289,-0.11250813115047739,-0.37538998439985777,-0.13638417749598208,-0.7491058015174856,0.1466068499414635,-0.5302164914608575,0.4520639948476886,-0.2661611664643454,-0.36495959238624276,0.7647108592285272,-0.2933475736379496,0.9803170549847735,0.6330723259768893,-0.14346654387915003,-0.7494532293871087,-0.2698013328784804,0.3604819403818532,-0.16381895623906434,0.06879945472368115,-0.3525073247989798,-0.0005290455751741723,-0.63347109887935,-0.4964984948952098,0.10170113914982108,-0.6289487453518706,-0.08895477295577546,0.19285059151537715,1.2998984527705435,-0.16744748373873,0.4901984536721581,0.29702319701354585,0.022271164552345808,-0.5980382199608877,-0.8058669012819201,0.0745931515289429,-0.9482601222592784,0.021070199533682464,-0.14700575808706226,-0.45243047004253406,-0.018864042356237332,-0.5684531837550659,-0.84177600873411,-0.6324380858180408,-0.037670946996048185,0.6120512206858374,0.30263024704389146,0.25131628894836644,-0.33686412697506224,0.6579820749662092,-0.7828334717865602,-0.35272634113392604,-0.4957192334918271,0.45006704391585106,-0.20990865551001323,-0.24183209223617597,-0.06858117741722057,0.8384472519611194,-0.2653470347730576,0.6865463120265458,0.1073819789953437,0.846094127792441,0.25800929413556284,0.6642551312989392,0.6111931916305702,0.10839339181874723,0.04451694031319666,-0.6952054925627269,0.7797786255198842,-0.5463121239867528,-0.062307860986848866,0.4625999840496096,0.30877152349843395,0.35467131669324653,0.09757504214701705,-0.41429081707768767,-0.8306458875349503,-0.42347141039903374,0.047119371245733344,-0.8073236015122095,0.7040734861106478,-0.25408571299158117,-0.03230939898739249,-0.26317687177128035,0.28120772576372194,0.30344374099405363,-0.06219295838401203,0.4741944541066611,-0.09618433367972413,-0.362044337929024,-0.9226991860098155,0.27763652729083876,0.2551234581572074,-0.5416064809112523,0.6794959187506566,-0.3456734692352476,0.6632276498808843,0.37044723150149234,-0.8066296622117134,0.3553412517858302,-0.6429660221714267,0.31585667004950135,0.054350731210987456,0.3886678226814593,0.2566052829692874,0.318910008683254,-0.00395415958398669,-0.2612162700276414,-0.27879921254480644,-0.847559349274579,-0.8644498671539667,0.10722458846231285,0.20464325318266277,-0.267830622642698,-0.19290790612559017,0.48003849768173545,-0.5034536481031531,0.3170349966227196,-0.8149931964814987,-0.360562618790706,-1.0860390392540098,0.21863275746853192,-0.2766829652560497,0.8980131034860985,-0.9352978089684654,-0.16887556056606987,-0.1314801929792596,-0.7430564462436321,0.08725484540853339,1.027976697956529,0.26894498868950245,-0.5278073132619268,0.43607405580970277,0.22688835928795867,0.32597215565112486,-0.3200104554388606,0.21685066501631936,-0.583706054715773,0.2384225352837021,0.8765132823582493,0.9628270947828454,-0.03624411905998531,0.20045462654115223,-0.1918190229849717,-0.13881231189597823,-0.4355541850493633,0.4454809032408238,-0.7056638091581819,-0.3967828016312673,-0.7526426207004661,-0.362891693899675,-0.6417292690093127,0.7157429026210473,0.8594753071334932,-0.0296214796630926,-0.4872833901639777,-0.48770897394608326,-0.4605780634125784,0.32127768436332016,-0.6599689427495931,-0.2064382812188393,0.20016939071143394,0.3407494816911173,-0.1275455428737464,-0.5400716251295219,0.025566814824145374,0.6166464174216532,0.13051727907215208,0.08319298974332978,1.5659934316535016,0.7277403510161184,0.6426687297104418,0.2847250597814319,1.0672324753207802,0.4178284454822681,0.11613563303329481,-0.46084126106843704,0.131024811529608,-1.0202978148802764,-0.1012548735161855,0.2977168322068945,-0.4276589143676548,-0.9043683074271721,-0.460540701991908,-0.8651043654027256,0.5850540182810154,-0.1524584231830508,0.7441511756554099,0.25859652377248593,-1.223074178482516,-0.20299020080963162,-0.5238986813602057,-0.8793733854731265,0.021575249483922188,-0.43572219325668043,1.310686101628123,-0.09880557792396155,-0.12290379071254016,0.5871845064065716,0.9896705165153368,0.18554155707060224,0.10875774257843188,-0.030843943011087966,0.5168481208675537,-0.8454873727954901,-0.8359830268356214,0.16190959020023718,-0.05137852548067167,-0.832878275534016,0.8223178782467919,0.7485001500284963,0.11568160339985827,-0.4367745678666394,-0.4309734305036571,1.3782125523665079,0.5761429567263182,1.1487246198650192,0.7380875693961421,0.1884182336589826,-0.12006726414618807,0.03888744458256866,0.43755152132325503,-0.45154089112947693,1.004849313209846,1.0308629824448132,-0.745350220859052,-0.6727655924469439,-0.40267746775303664,0.025381583134597895,-0.3162290184513045,0.27635279325682144,-0.05240583169527672,-0.563157275340902,-0.6002887467546693,-0.349180667457642,0.10183179203513433,0.9342494083004842,-0.39967067207239126,0.6225437377020431,0.4008766935572025,0.04090581211941422,-0.5821728199851116,-0.1647629226354364,0.44549510140612175,1.1195409988493739,0.6589289195972639,-0.27389749797823915,0.5601506214374931,-0.5094296929601684,0.7125334919608216,0.5418195916148439,0.5597434825271773,0.7760595909592074,0.5672381246741702,0.4769270343019385,0.6502993146167533,-0.5129588476598801,0.43454791448182245,0.8713210642761249,-0.789457235642879,0.5926493622245245,-0.51851279444555,-0.48227261899024204,-0.42341725343246933,-0.7819471456503531,0.7793117535633711,-0.009520893556159704,-0.08568058338179828,-0.9223383056498858,-0.4756296567928247,0.1108137589298905,0.32296690235013964,1.1226398028924938,0.39180675079182486,-0.1767793616255672,-0.17387051044947616,-0.5956925096520869,0.1442359902074948,0.44857337498593874,-0.05833437551980514,0.0977360177118842,1.2604435980116773,0.9306752624074608,0.7053314132014005,0.40900172389731054,-0.39771067823940903,-0.9134291172311312,0.456015094097776,0.5821620373400667,0.07581743599455147,1.0638300631777813,0.7978174837842171,-0.03630129945598507,0.3333146986712454,0.5764914828932812,0.32611091788717333,-0.52717694419346,0.9226297380427804,0.23087211021444654,0.15207970741755472,0.7136214095006056,-0.5138416308610589,0.5230031912425216,0.25773094828713566,-0.2737773547902755,0.4850140028979092,0.5449453205241893,-0.09009789404172587,0.4025481140882985,0.22140896879772204,-0.5296829915010618,-0.04991805902784042,-0.010344468606367155,0.3112385801340844,-0.6928370601814475,-1.228220697931835,-1.0999908933359248,-1.1890891704972788,-0.09950737108325701,-0.3671538441238038,-0.2311491647950545,-0.15945015909926652,-0.9144750380627655,-0.4910455107809501,-0.11025353712230622,0.592875709479188,-0.13514187674549197,-1.2848715527733887,-0.22613681717801837,0.19328308002257422,-0.8194951283796946,-0.2765162188462786,0.9942944657730229,-0.473885991008128,1.2618440214833082,-0.03168574220071081,-0.17597389881160969,-0.12053173174896051,-0.6310820332868661,-1.1919737786667435,0.33783503671299697,-0.2590354467695693,-1.2197690969847788,0.24859276001658975,0.014270842022910363,-0.831982111688271,0.8509340437763186,-0.16809655317735614,-0.377757323870697,0.8258353767613826,-0.37453250995929327,-0.7018964988135535,-0.30174330269834987,-0.508471974539107,-0.8166711350286039,0.3272620636763765,-0.7135147723111408,-1.1312795024093534,0.4368852931076162,-0.9437082370392493,-0.6451336429918068,-0.6038618282153341,0.801818742371895,1.0143826681932495,0.5354397302832635,-0.19132825243334953,-0.044382067763653985,-0.7445128684792479,0.2569537658066106,-1.1926222118870011,-0.2066487925062028,-1.1745935192245751,-0.6557609125868595,-0.6430806103450973,0.29491966744817044,-0.742586409606639,-0.0882301197584958,0.021066471962045252,0.5087619809912078,-0.8296701991646258,0.28461572137248253,-0.7672373479858915,-0.33661133033667595,-0.548054387289566,-1.6180927847407673,-0.11040940407004231,-0.6666961132807436,-0.7808187800190876,-1.7226201044817508,-0.023913275096544787,-0.67879227402341,0.02542530163582245,-0.7811624282493865,0.02090542867617746,-0.3700431516672431,-0.09429679767906846,-0.5848947133186533,-0.03718076449744127,0.5716605776479432,-0.606398781871761,-0.2978357166271263,-0.9744309440108077,0.5348088064742094,-0.31551790659331463,-0.7762106624028542,-0.12538831712607146,0.026062476642505474,-0.2549443288764276,0.5561697257994954,0.9075979502288344,-0.2782296288925836,-0.44847196691703906,-1.0911832746665455,-0.5041188874808394,-0.2341203810748136,-0.3356721501929931,-0.6316258908785849,-0.8882793637270371,-0.291456197990585,-0.9075108944023369,0.35626967377271734,-0.07115394601039916,0.41602657032191104,-0.369029697379553,-0.4623424144147817,-0.44698915765161107,0.7978722598009645,0.3089794217382098,-0.7908127834965073,0.6892399250145086,-0.4056916727771996,-0.4379254936567184,-0.8399593381346173,-0.5954758055845764,-0.5231188126716286,-0.23056865725212497,-0.6975571637748196,0.6769696066327344,-0.5844780814022659,0.15668085080266364,0.32471952859524184,0.7887654688693195,-0.08475543017887126,0.026781849292750622,0.2311966090898446,-1.057514787489618,-0.9688119851958549,0.2938528296174963,-0.3007414267366312,-0.5959136163572796,0.2739489644558787,0.24788701981401806,-0.569088536788312,-0.2107312616722387,-0.9217046269596633,0.781696957690458,0.30641193030956004,-0.6713234137347812,-0.4025460847002905,-0.13659923803963342,-0.6507270365440116,0.21618936402471056,-0.7524084634213006,-0.17126744041752617,-0.28091619282434965,0.8889637404915626,0.5000914117048304,-0.05203080521445626,0.9393820039198465,-0.9420370688378122,0.46641234032894224,-0.8836139286313562,0.2923562896076631,-1.3959668207365994,-0.4538744346451748,-0.772957955093284,-0.4781130530292481,-0.1974015276551535,0.7536671314965757,-0.18442494325546896,-0.19308158765251004,0.07358915317500286,-0.043933043783924944,-0.4368235668069722,-0.4956575406346095,-0.5336386543250665,-0.42691204009617373,-0.40043991029442944,0.7703481481521821,0.06253441173646723,0.9115589694852188,0.9423363671128848,0.2470387871250927,0.7386075940888934,1.0782801939936744,0.34659519077877615,-0.6743359277704036,0.377302754683034,0.272446056696811,0.3093991057310154,-0.4840250104401553,-0.09307221260271274,-0.0069188960639061875,-0.9841101878933712,0.3262197757003683,-0.04509658042015867,-0.6497568000114486,-0.10593085372379966,0.2698028514926566,-0.6414710392997202,-0.004921153286236212,-0.28560020260848634,0.08745868940284657,-0.5062047896734634,-0.272949994223658,0.35970457920593396,0.37503059446441855,-0.2052269545766927,0.5218891152808391,0.1826390560918847,0.14142334423194777,0.3266077199178876,0.8059510134970056,-0.10747178696436299,-0.5020048878427124,0.001100023756022618,-0.42161973603867253,-0.5821003961394359,-0.6270236812148413,-0.950546907184344,-0.9308049298555267,0.2272052294929175,-0.4282745575102208,-0.7864401734726293,-0.5078010681588664,0.8442510936098239,0.4515030219405127,-0.3276042325364339,0.2264643493626498,0.833075055688628,-0.2584399662579375,0.8614217280693005,0.8812471128133098,0.8087721059220152,-0.42035031797193967,0.5714974362552441,-0.555388364932315,0.3681328098001946,-0.1620415015488537,-0.6810779257426958,0.04715181641008234,0.5287841263567792,-0.3287745768086451,0.721601039963482,0.5909414926861025,-0.1686024583453168,-0.5001812232964765,-0.35641539074689027,-0.058125273802610185,-0.4960461635681758,0.42337460187329656,0.08651102456955882,-0.07162109624515718,-0.3723018174854407,0.5141071031012344,0.27245040855363906,0.9093996081586961,0.40767924155424873,-0.1842922318004305,-0.5225083389684423,-0.35191601823825897,-0.5882093319966573,0.9690011545990327,0.6253249671811745,-0.6673133778521754,-0.4111863885293128,0.06255508812895494,0.817725271028905,0.22852913544563322,0.41521800084615884,0.061867962761332544,-0.6288657133235532,-0.44572599709366945,0.8638413422137952,-0.3251661293023333,1.2204323151296694,-0.4934141140249496,1.033000260863562,-0.3624403380451234,-0.07920345254640666,0.992005971082525,-0.6900660596418359,0.15973969505937177,0.33747900363157046,0.09507950643330898,0.28817663607443833,0.584578969733987,0.5822313748935318,0.38975107654366803,-0.11000315200377608,-0.12080625900647246,-0.22186024478699085,0.408006627639415,0.072963560730404,0.40503023208794975,-0.5756513374387102,0.24507045968782615,-0.40879406486721304,0.5368893435185286,-0.6728715605007868,0.11862483989372473,-0.9434682334724238,0.6994057053739707,0.7475532400851815,-0.44729257545831297,0.5146920268319765,-0.03854970107509534,0.7320122304307428,0.7672937548710234,0.9583631362254135,-0.5014978042962228,-0.09728430495796891,0.6323614833378564,0.2672447951918411,-0.5413886562599588,-0.13926399286216906,0.43524230815680465,0.5292153483911282,0.7606886584485559,-0.21026239539495317,0.4628680207973217,-0.8039657220921725,-0.8378652472691892,-0.9223825671049577,-0.6362589480548808,0.4235857021221441,-0.16300262134456966,0.9452066765004721,-0.8667956746962211,0.8196512504711624,-0.2089018300941663,-0.05736708178678018,-0.011628514643545085,0.25268548965174387,-0.560727742370202,0.918428546692645,-0.47081008317369943,0.13116359277125333,-0.655074946262636,-0.49824599685971216,0.44285598328689035,0.8891315603767993,-0.5840663696709423,0.8305814606161224,0.18296627147747824,-0.17126128129661944,-0.3668301939523917,0.0207591696638858,-0.16776912509731412,-0.31688322129949587,-0.8398890665007168,0.8058796157863575,-0.1602147053389485,-0.146029485112843,0.3191152189805485,0.7826175768804803,-0.05927592208990067,0.6321214174836141,-0.5502247247985748,-0.1771622392670812,-0.967167860412456,0.4735559982829044,0.7600438209827323,-0.2531772364622127,-0.059388893735453224,-0.21178007769637974,-0.49911097111269753,0.42585034791622167,0.4479757750554578,0.640232070519793,0.9744993974628025,0.9325268052900766,-0.9302553603286057,0.6791719022248914,-0.25818081551852057,-0.8077747058751219,0.9725225871387535,-0.732391038697553,0.060124856399192295,-0.3660771359151034,-0.4414484122037035,-0.3452707220498638,-0.004490169562424132,0.3435181306269909,-0.9512515878801354,-0.09104838168056867,0.5631589014464148,-0.5455248838852463,0.18947744076436693,0.6152556565149006,-0.08053560260494233,-0.06988700970634189,0.38244062332787143,-0.5213726884817788,0.701663844781845,-0.21992841853611078,-0.026144767640068615,-0.06029335445964754,-0.7043797964447139,-0.17324503170254907,-0.638881018135381,0.5481656908178332,-0.17567534390874884,0.734522853579211,0.39073748716857293,0.5824874759812242,0.7858254136791023,-0.05001859480841476,0.9721101158820983,0.3252207484907596,0.7516359639920065,0.4375442225275011,-0.08441970346927952,-0.6396854631435811,-0.3231766501050679,0.15793805206144132,0.7306068906575992,-0.2679248950510086,0.7078293797254567,0.6055090249870706,0.680214556582304,0.9010478208976855,-0.19267602182913415,-0.8403547907112037,0.41674609728952655,0.27599374367208956,-0.2596733309924999,0.723504583542234,0.6904459774338466,0.3263567503715778,-0.8416002211564177,-0.9383083977129945,0.5308544656401855,0.7933174779663748,-0.6820721587802216,-0.32148089436676075,0.6477881565621543,-0.5359621403164455,0.3437112528720824,-0.4255844220424948,-0.030293264775881817,-0.02783510266414803,-1.067969518701666,-0.01069310251522983,-0.8558450841739667,-0.3876522588546921,0.8048227287493823,-0.5469391588768052,-0.3307343860455479,0.7823394927658794,0.5283663478619399,-0.7854131948339745,0.5184886474876493,-0.8321640948504031,-0.4420260235849626,0.732908568446469,-0.8075439370137852,0.23042057545457534,0.7461642628799565,0.687511562774737,-0.016319844174589558,-0.7945411952183125,-0.9015141220413376,-0.04904814734462666,-0.021855324264291414,-0.6354634320318775,0.4721111672187512,-0.17245461685357624,-0.2723651344667571,-0.03469787727015733,0.011046619183027281,-0.14925722713376907,0.11017797424664878,0.03260937998895052,0.7502641461097677,0.39218613132589575,0.23677979695682683,1.1614501233202355,0.6503685746757245,-0.27409258711596696,-0.7433581335170684,-0.1733790253843427,-0.17539061826268448,0.6799411599949245,-0.9411635620863531,-0.5675948550536214,-0.798931645279747,-0.5930269317222174,0.48199778799088766,0.15013859020265125,-0.019484204093375194,-0.4767275939202273,0.04635719968194305,-0.8399812793472073,-0.0038754783809843833,-0.790525962081023,0.46550958857798586,-0.14229798903803859,-0.906200437961582,-0.5310040873343557,0.5582530283224525,-0.7646081049781381,-0.3602915215948739,-0.7097629972774948,-0.5737940614686888,-0.8782061306661245,-0.33637951730887294,-0.15155596547430183,0.4254397226527894,0.3685968861655428,-0.6361325713104776,-0.8897128030385508,0.6287411929155973,0.07367893989615225,0.2282148214680702,0.017438596945864138,-0.3359295109533366,0.3949167440967074,0.13715372469249326,-0.584166428567592,-0.21865771282189028,0.27270293404914797,-0.20817519804999665,0.0014654276708644899,-1.2141509172214,-0.39817150309773186,-0.8921565280900371,-0.4195848098315049,-1.4587648826867006,0.06495405379525315,0.4930853811784167,-0.13108493636565374,-0.02008719269463432,-1.4999742827811977,-0.30658048046071884,0.479909119408001,0.26308985755153647,-0.8462371101748578,-0.15520852943747546,-1.1367083831982767,0.23509577325492068,-0.10756997715816488,-0.9798749495499222,0.03943544707509905,0.14041972661839103,0.08884194282792296,0.7363948222844033,-0.9512226540004147,-1.0617935209795628,-0.5930775054064871,-0.1280400284375581,0.8795373543851707,0.046967618018191756,-0.11944557376475172,0.5237714237830761,0.21539426103264667,-0.5917220213866629,-0.7165477873435993,-0.434899325407611,-0.6875765170230109,-0.7061450578190588,-0.5339987856594416,-0.7607200601620293,-0.9203954488245815,-0.5525777397638166,-0.4905942729120277,-0.21926879123342555,-0.2453404836604288,0.7223351152509508,-0.9809761044273531,-0.5755983837478883,0.351114228776834,-0.3966227196924731,0.4283934839924931,0.5081172976514498,-0.7539499526871005,-0.9661692772032968,0.5887547672834353,0.0726204033781396,-0.37463639652911884,-0.060475815420443314,-0.5431790971377869,-1.312696627026513,-0.43195449584888,-0.8399309750379205,-0.7383571297330699,0.3581597298910416,-0.644793988926914,0.2404589422561272,0.4557639779886605,-0.09940656151457096,0.2211800870241009,0.7813961599127601,-0.578408111833716,0.0914540425278673,0.42666012758857,0.10486836565582255,-0.6732407687090814,-0.8235395361656836,0.991265224763482,0.05198572846940366,-0.3931925776759823,0.2857329326265448,0.728895065715536,0.013450839845436983,-0.08432674374372005,-0.5702952120415035,-0.30111630331393563,-0.6144657672847055,-0.7056384715009435,0.0856764501311809,0.557832050005712,-0.7280202741552398,0.2629246926442459,-0.6509789244429209,-0.02594519758972239,-0.1706943188210196,0.2883389285304676,0.7725892740999984,0.9060396759454153,0.5869671445541066,0.7723866973825566,-1.0310804844757768,-0.0027598313337170314,-0.961791983672087,0.7845701357973919,-0.5572800942183276,0.25259253191911757,0.29176523524532677,-0.7933485178379356,0.2491313758873761,-0.415093234897844,0.40360398837499406,-0.9223573721035438,0.5978061126524903,0.20616151262027907,-0.30383040342886547,-0.16369469353070054,-0.9665685685145097,0.12066298108933453,-0.6238126959295649,0.3040534156896042,0.4292908811393444,0.13687399291552038,-0.11355935360779093,0.2352196199858429,-0.771022176319868,-0.01697756372570091,0.6396864131662343,0.3556781976603408,0.8277557490566375,0.0775457953698126,-0.38255378260014095,0.5849024027892284,-0.4595273283024156,0.16403022032557968,-0.059981087198041586,0.8763928469192215,-0.007217657192381439,-0.16161118963677915,0.2136281698970179,-0.6518394333836764,0.21566776102927857,0.7865994911949136,0.13904865303645123,0.23871246386935235,-0.08874211215807976,0.14163043320185656,-0.6497562697180758,0.3522994559320522,0.04044228637498605,-0.318533440032227,0.13981652595021374,-0.6235555020522345,0.11962493493437756,-0.20807273846640637,0.2589013537146629,0.7557132076707166,1.1366119541022175,0.15227442439380107,0.3909082242497346,-0.6046966243508667,0.5393898349844075,0.00629817761073137,-0.6936200230675754,-0.18431489162422726,-0.1946929451683506,0.7547548037689594,-0.8683283444940626,-0.22371105743753422,-0.3814079329114934,0.21819687006229932,0.710673474310346,0.4958813538408255,-0.18726868298364255,1.0756191446257652,0.956835281018889,0.41427943074063034,-0.5543393681399212,0.007434605539646612,-0.041371816954049755,-0.2656478966993241,-1.397572123183029,-0.12451682158468158,0.56354790207257,0.46199136071895497,0.7899112970949637,0.2676792340429435,-0.4813603423788501,0.8830671811225397,-0.0007379874806219267,-0.1120480666029664,-0.4099049817266791,0.41041286282923,0.45326723081398695,0.8487481242500048,0.9912743235783769,1.0503130993149923,0.7155456349183673,-0.125670850585542,1.0562118139490095,-0.010276703803590952,1.2091955599841342,-0.7655209212386318,0.41996064418486245,1.1255879082568003,-0.375740333014579,-0.22956642389503312,0.49539956180810596,0.13599504215010688,-0.13463303518411035,0.6645256349364137,-0.5956962979596814,-0.6099067314527369,0.24881396120998192,0.6499540871065256,0.6221665957493683,0.6647153084443596,0.9951348432848024,-0.21304477786062614,0.8548952046262801,-0.47311659417146507,0.9229197529829897,0.5087754612969854,1.1301881453167817,-0.0442834885373962,0.5596992048567954,-0.07993591584431754,0.9220317791269151,0.7232369486702165,0.4310926551861605,-0.4707554295247037,0.7186693400180516,0.6017936364730948,0.03940024668988851,-0.5927922069005412,-0.140553861417884,0.025741066545301432,-0.6402183021622597,0.5451731830360099,0.7418115912869185,-0.14517366855130523,-0.8956455051488377,0.5620709334092707,-0.2549923518401015,-0.20309402141833385,0.561616129153087,-0.8271035226775003,0.23324416552353372,-0.9688818272685722,-0.5396093301804492,-0.5270098789540278,0.8392303656129919,1.360249947501573,0.927433096861902,-0.36695224923971453,-0.3020783764240874,0.15906870604127896,0.7863568674526421,-0.7438274863085771,0.8346418864185425,1.0146862446517508,1.1707744336062897,0.42349016604677986,-0.3713748366377515,0.03522345981835191,0.5831311086586125,-0.21668895041747302,0.32401930212826136,-0.22672874947231536,-0.8964317777126994,0.1995806231913827,-1.264500870479849,-1.055032927545005,-0.6572248217459037,-0.050519228839364994,-0.0011354152207265766,-0.5753578763240748,-0.29184775237288724,-0.27637819149276927,-0.054694644167674916,1.026892709050424,0.19147053396000682,-0.21848901816336402,-0.0008594478817999289,0.15745054493400393,0.10606046167447727,0.19484757507802855,0.7440692522919593,0.5751484473252034,0.3865433618738758,-0.6980018519658804,-0.602251149101175,-0.3293963584267886,-0.8652326865575788,-0.014956527726969548,-0.679967358404841,0.45434414295408465,-0.7440052938369536,-0.3874226695442151,0.4769943370057589,0.1489071242753104,0.32882399342773844,0.2093367243412847,-0.009605849118674287,-0.4240057983206186,-0.5339531058551092,-0.5492153999713987,1.207882006263909,0.6487409349931177,0.20065624005826832,-0.0838848862528776,1.1288475916681824,-0.22032431306111172,0.8987919115024016,0.9250943427504759,0.6651747571493521,-0.16567889462056073,1.4047058446491543,0.5002377796428648,-0.2678445214847952,0.21752728528680015,-0.4633041677894806,1.3144865299007114,-0.005979929602788034,-1.0264828719252839,0.005767317868919987,0.07969618385425761,-0.40719968343654167,-0.30606353465140845,0.6142829640359675,0.9942066013492594,-0.32186064338939524,-0.13413091613405775,-0.660206562570926,-0.8705023792666676,-0.14256989182905364,0.5111467533845147,-0.3622205446787517,1.121308706808354,1.0234525253298628,0.3573363983848958,0.6164697440981975,0.15460041022326587,0.19494913618775317,-0.010886060117595128,0.41554308436757836,1.0510609726208369,0.04661105097809336,0.5395749565371982,-0.9498722995809978,-0.1085358903706392,0.5385989336225641,-0.5284041357495051,0.20073318436937979,-0.6415045334952265,0.4933341814866812,0.5699282958801641,-0.2914151710706347,0.6075701716006772,-0.8203584724977255,-0.17413659264244238,-0.7568264531318694,-0.4681960437719078,0.6554485290516933,-0.04753413184539173,-0.28916522202923617,-0.04369130457776634,-0.1550859009565418,0.7190963680643111,-0.5276879035165882,0.07168400619500512,-0.1705794459986392,0.015565390275554952,-0.06552661861647027,-0.2550070724809511,0.5047363481478901,0.48768811817954255,0.273568570668586,0.24661252489532223,0.04625164349032011,0.1888794451420957,0.32782328388249793,0.830946776465791,0.7079222779027892,0.5925116838707387,0.09299883385490038,0.5352121201243314,0.31992790252600334,0.26706887494698095,-1.195806539490595,-0.022185233680447673,-0.8913291028339494,0.3383819651050024,0.6000255403935001,-0.07649571339961758,-0.09837352931071028,-0.7062637174718515,0.1147127529847881,-1.1620936593628737,-0.2119545472148438,0.5898187081588434,-0.16665119246802282,0.016285247206390234,-0.32302170988477547,0.4060901826022636,-0.8368928075199631,-0.24757530166590624,-0.48581456043350857,-0.043346263493163076,0.9881272093796203,-0.4666231126109677,-0.16359242121612338,0.35554626132410455,-0.3540126547995197,0.8844383859640268,-0.16416716890698058,0.8104214681089642,0.46523027014474894,-0.12452308444911113,0.32047406971265063,-0.3459940744881444,-0.644527168172411,0.1590998654671881,0.12942736354469114,0.8383407278498303,0.2150816366970738,1.0729126778753386,0.19040407028933026,-0.30182991082539407,0.5327391007516064,-0.12197211154218829,0.6289391764136405,0.9076222895138829,-0.1454905252740437,0.7489575079339605,-0.23650695665053517,-0.8251684574341288,1.0303683535278902,0.147996521124348,-0.5758647726055927,-0.5955151653702448,0.6894958108442464,0.9558481057681008,-0.298354100079084,0.2563251560252969,-0.9605033574587796,-0.6029066242445468,0.9044136553749093,0.9920589216140006,0.3901959962484432,0.23882950422816088,0.21881751199540533,-0.21453987844993586,-0.2529772586336084,-0.9663416630203217,-0.10626987127400608,0.46065405876946136,-0.23574986465947137,0.3214875266236964,0.8769417079610067,-0.6573164809198149,0.43369338935467516,-0.2845994138348895,0.6680765374090084,0.05411613051354205,-0.7928703732394117,-0.8887448818702076,-0.8730209423652128,-0.09346051762612222,-0.8702228139177817,-0.7406027018568409,0.9608652878112949,-0.09182764792885711,-0.4959603492110651,-0.6774503168074041,0.6049620548118488,-1.1394375670218295,-0.6551001392251495,-1.005469348595127,-1.2249561842340022,0.2829144125677755,-1.3026464345138153,-0.4740819480036626,0.18848793044733417,-0.9459124219798888,-0.3825836523961539,0.6126937941906121,-0.1574366411454703,0.008818331773860346,-0.5959124802610636,-0.8621944834389508,0.09178043364169669,0.4429633720931765,-0.9631310456485402,-0.2217311138850315,0.42283597316096705,0.9573390124068479,-0.14703144943611735,0.7888261874384743,-0.9646241553636188,-0.06976831701024211,0.9554310893415645,-0.9392708103512091,0.7742296949732977,0.1821977476884243,-0.9802440166302638,-0.7631601632228858,0.044940107167765565,-0.8165166050168152,-0.4304524660769275,-1.1233574624261513,-1.143488324728009,-1.4025030666997376,0.12916940990532388,-1.1939030289474502,0.0400429133743689,-0.7767178872295325,0.016312943961084535,-0.05383586942608695,-0.18238864902909227,0.6691797067395309,-0.33003674230623486,-0.6149470931537387,-0.6915413391884498,-0.4007203156938355,-0.2047452097817326,-0.5285501236787407,-0.23978931703934458,-0.40331661620860215,0.819367728946244,-0.4714303674579996,0.4777026150461926,0.4600248894077657,0.07887073462962582,-0.11936136667242331,-0.33691147976064134,-0.5621357815961373,-0.3882342799191682,0.10681363055854617,-1.1403939418605518,0.5452553615925344,-1.036031160936616,-0.129752284072016,0.12039800693502833,0.25231348574414986,0.5639323930469917,-0.35876466150669695,0.17982886774416212,-0.9156484774688914,0.7089667569854043,-0.48640145325414547,-0.5855976299956231,-0.5501448921206671,0.28774500410457704,0.0627610216161798,-0.2619055759315789,-0.4364147734216979,-0.16017786952708302,0.933491547621367,-0.13489168226008297,0.1369049760853197,-0.4462210058508477,-0.32542028379420324,-0.3434440485684763,-0.0030624243028524534,0.5622270409554673,-0.21083513363268191,0.6027502450872757,0.6625629876535193,-0.1484263359866841,-0.5668667654056965,0.14217586552587508,-0.7422309869786742,-0.2436723724341154,-0.6207029341578776,-0.08510257169291291,-0.5025562372617756,0.7498456656109012,-0.40808119858839054,0.03930282117520356,0.8735876195276897,-0.5472177530355458,-0.1701180563074125,0.0034768362653720963,0.7081758911042566,0.13117917652904598,-0.7865463111798285,0.610055452760949,-0.8658992880301604,-0.08739314074795912,-0.8830370255742583,0.15129613756120097,0.14148673357880726,0.05534303499954296,-0.9421759597458315,0.7780461924766275,0.2410841872959979,-0.2562348693624492,0.3275911808270373,-0.16958038515484386,-0.29866163637379417,-0.6318849363890964,-0.22503206716307056,0.6439438021035502,0.5815725748903469,-0.8619446156635702,0.1578782420667515,0.27979734210028684,-0.899015979124212,-0.6944005507301991,0.5050849636480805,-0.18893712893034587,0.46856976639398873,-0.41527460878604994,-0.6827022433309242,-0.9042627287595927,-0.12745742837334653,-0.9376879318376966,-0.10522123449455292,0.5647865150361715,1.0148758303385146,0.46708057783184836,0.07849414724645032,-0.21912552338733185,-0.5039088219765124,-0.15218196850670093,0.6630981659497254,1.0103010441266107,-0.5359275782585844,0.7603339293203069,0.7301556659517756,0.29511637465753005,0.3580946474073974,-0.993881607464673,0.2793943831369923,-0.4233813066776857,-0.41352483447087396,-0.8338190880601963,0.899793939484844,0.5455701684016836,-0.5268147455056325,-0.37952610788059693,0.6480273871224234,0.11615233104922985,-0.32785666309672296,0.7589414067107538,-0.8159858257492641,0.5955429437927195,-0.5584534386307799,-0.16809935244549729,0.47747148375851567,1.3240815736449711,-0.2986894523398434,-0.32469589207538363,-0.5551560351226013,0.43705873984348076,-0.23337359452396614,0.29065804292744885,0.970750832083103,-0.5482180893771889,-0.5840758512267181,-0.07960694163205997,-0.19869377941135835,0.16916146776287122,-0.8371376184799428,-0.0012718354088758765,0.6097279270091973,-0.2617857871069402,-0.31832825045117263,0.5520499786620103,0.11232067484122242,0.7020393336121791,-0.9860939221082712,0.6676675939932937,0.08614484353833629,-0.6513020662679548,0.4776688930589843,1.1229738894599774,1.0716197436066441,1.021976470359842,0.7265834252141051,0.7236581740632085,-0.35205798268074545,0.8801390027771915,-0.25629573988380155,-0.4869323024406857,0.5747326612698115,-0.5437761686674802,0.027169991843728498,1.0553556973403158,-0.8992511746296424,-0.11416998186630894,-0.09658473056114394,0.925662989420013,0.0910924028453548,-0.6898780253798444,-0.39670659584151813,-0.3019413646265681,-0.24321162804539312,0.9373147513189303,-0.2994419991205267,-0.7251157644506702,-0.7141790537285055,0.23025458488585637,0.7696546987692471,-1.1369002558393828,-0.7420663572539654,0.22188147647239506,-0.744954758111886,-0.5138272951196021,-0.1273353298132485,-0.23303278914932135,0.8438305444121317,-0.2694415502405583,1.1688429535584695,-0.5650637487689346,-0.14716101117084376,0.856354885068308,0.16441570434916022,0.5862199602070368,-0.9035563672820554,-0.11596275645155818,0.25125899829171705,-0.2866965798526779,-0.08525618670070446,-0.9405847491029031,0.16248990348200246,0.06648135008312522,0.4225316353245856,-0.07424741874882182,-0.8889349928752904,-0.33307868488365894,-0.28501925608649614,-0.07907142867675533,-0.5182492110908761,0.36620831597826603,-0.486940763312899,-0.08221586185022282,-0.9941145803570405,0.3374253942388162,0.22548657972149722,0.06253584578691658,0.14390252800340572,0.104540231755794,-0.21139504572967824,-0.532175427049143,0.16189286961819566,0.3219890522392778,0.36829582513657677,0.954786224612858,0.3308719490979104,0.4917057269998426,-0.1292884419963572,-0.1524771279800258,0.03880000687304211,-0.28035320495880406,-0.07441882927490705,0.27869181458507913,-0.2617448464856345,0.3569625960340374,-0.2578424822861041,-0.4583222617730008,-0.486489687050142,0.09422455436073095,-0.6825142231844419,-0.41275699299557483,-0.37642512498374736,0.03740118294744167,-0.3791841747956862,-0.9485787354600485,-0.22923199618081702,-0.3385084869318678,-0.7570333193728523,0.7707915652524387,0.17318850201982647,-0.19838019920109543,-0.08119797300316339,-0.17036003799619634,-0.3288169632898834,0.10864710245398435,-0.5021272576987368,-1.0112192777364175,-0.2545523590948347,-0.14492959270208397,0.3285531311333115,-0.8160248980910733,0.42723631384628297,-0.7824804396473929,-0.28077599613728726,0.2704158481683342,-0.12623538264362041,0.2221044027461626,-0.11108618865894401,1.0681896318260833,-0.4904460093242074,-0.5088545667619181,-0.7657418064716285,0.5576443373083525,0.06973130589572625,0.4780613515263064,-0.4524799879488282,-1.0797261992350538,-0.7347511955705189,-0.40100996172208664,-0.5471140439524358,0.15963206476972666,-0.043033030291291574,-0.7495344917022165,-0.228737265538015,-0.9998323075906562,-1.0458555306490276,0.007976304372458987,0.5447461322304443,-0.45141945891787816,0.1586913409690945,-0.3156937675382195,0.07808861521607095,-0.3913427861826767,-0.2703012573619061,-0.9289292158711632,0.08299709453496039,-0.3700934450572461,-0.24069985770006386,-0.957559932948409,-0.3691471706256157,1.0583779159123445,0.18999331175946993,-0.5077434673413498,-0.18089951745256147,0.03340411966095221,-1.5485864246326493,-0.6687559792204517,-0.7565814886964336,0.34993748078556536,-0.9644569593912986,0.20165924640120703,-0.41036131804591863,-0.5585404915617602,0.04051574193400729,0.19975385146470828,0.7625570741023967,-0.9131068738918665,0.8117774098195008,0.13282448862799773,-0.6824964852766305,0.5497097619984319,-0.19000309321417055,0.19711358017302513,0.42650592333954435,-1.4593266637447968,-0.3171065125230161,-0.01809217904583752,-0.20284645401667414,-0.46020213483637096,-1.0631479634499053,0.17950443075021272,-0.08293591930635946,-1.2752880159099795,-1.3832428132435597,-0.5661395087296078,0.00791523676879056,-0.7008929548482427,0.5209472617499464,0.20449687222157092,0.49694623685923556,-0.10723674697012142,-1.256162343470521,-0.542316313868904,0.007662289317819663,-0.49663821533413804,0.01784664176793951,0.14594807514131183,0.24559277140116928,0.2931677116294687,0.056327596260446124,-0.16939480693323156,-0.23600516038273284,0.1650443588112277,-0.7878130952575829,-0.3473106804150412,-0.5885012721177658,-0.2044556597631516,-0.8038621147290335,-0.7142437988634807,-0.11550526632976273,0.20617256946064874,0.2829819020616283,-0.18737971952932686,0.5566307128331041,0.22334390402164647,-0.14653299965830613,0.9955479876487768,0.29088559769463046,0.48672889966349847,0.6190159656686663,0.6075720889046937,0.025388716322814704,0.6095765778095328,0.011882829752439308,-0.17522353333616,-0.4313218272988206,0.24765683591772564,0.6961485805258973,0.5981344494982306,0.97188596639013,0.19410545497707957,0.13613501628915925,0.8279637734406725,0.2946419735846366,0.09881987881967533,-0.20052416533548859,0.07993274374397821,-0.5044481640706342,-0.7937668093703303,-0.06717906416272162,-0.5358375245349584,0.57983197891207,-0.41746602554094736,-0.1570432727922877,-0.14039922324993045,-0.22593091287571723,-0.11167373317159836,-0.005276459477510509,-1.018010908175886,-0.5015851708647555,-0.538024649762914,0.7877572512428052,0.43878777520339846,-0.39984994562309834,0.15472960160980462,0.11915191179598383,0.1800472148412083,1.5231315211269068,0.5536284647273614,-0.8150380012927452,-0.4375226690158302,0.2243825105303662,0.21107381152671548,1.0258954289948852,-0.2207777639819635,-0.05499386926830498,0.5534486240402355,-0.2959334714733374,0.06829579919926694,-0.042144456444693584,0.3380011222638055,-0.2168565923175394,0.9248248361761754,0.8919668611409854,-0.09154096352742534,-1.0178635248281538,-0.456712204283356,0.015264707718387583,0.08907302195643724,-0.014970479853326016,0.1244385202902163,-0.5965274769805057,0.6263391797621329,-1.3007286377879206,-0.029454899085295104,0.39101184971106706,0.4556023243782253,0.1132373775705848,-0.7564501075711367,0.9970374617974305,-0.371457191900899,0.8064331630408977,-0.49028845806615506,0.8930983810422447,0.7383987531488085,-0.3820931899438186,-0.17739789131095884,0.27143258425202504,-0.7414876852758805,-0.254024969589419,0.0011466128511734563,-0.9128153345060295,-0.7418613474764192,-0.9184337648516406,0.8245276029183375,0.35348084261588525,0.7334069125727355,-0.7590287799749081,0.09873410750459857,0.08967492616800198,-0.43826547589909565,0.2615796062244086,0.3145931736063009,1.3237802291537561,0.6342521822282229,0.9355604275738033,-0.8535466226090548,-0.3199117250587116,-0.24940553025434553,-0.12914957718242842,0.5773490648473635,-0.5818270125269333,0.7359471193436351,0.512516363425238,0.7098522945331377,0.2551093408840507,0.3547549224952431,0.9599275239883098,-0.48669929469300977,0.20302741788099363,0.7925336981249148,-0.9507697897415892,0.5515968952048692,-0.11661666128733368,0.5860140339204927,-0.4815697578669087,0.6372680660799113,0.14225856252245525,-0.7368266575548533,0.4262735032799376,0.24086271927730496,-0.43760849025504506,0.7250774513291752,-0.5551564529598509,0.5250272370586205,-0.43204828181631644,-0.8544411104641496,-0.8983609853965195,-0.5238330191492145,0.8301472359163936,-0.027093376708621005,0.012689206766275716,-0.45592752209946125,-0.8313906685242527,-0.6123859471223831,0.286410897316274,-0.7324077303987282,-0.6004904106503264,0.8096480574616856,0.054289557781340196,-0.837670037763262,-1.3886803397234178,-0.9512412674039828,0.1584769567326735,0.18181518013328096,-0.40117951241457556,0.5721969925920412,-0.595519866585669,0.4507231464793366,-0.2271054292846171,1.060144112435687,0.7615891431777769,-0.3366875591607173,-0.04501100427214106,0.24074439772758727,-0.6889801763291254,-0.526175717804926,0.6165281187895575,-0.3847396689542041,-0.6966051207398537,0.2882550319543738,0.6153220168167792,0.7504534690492909,0.9366647036066345,0.829444367481041,0.5443430687921678,-0.2238593514334197,-0.49462325395492224,0.1301382009033743,-1.2600351105275145,0.1962785684559769,0.04389872839880037,0.0304264766499269,-0.49355140698293304,0.8236583613209143,0.038034016374940326,-0.1624220331532969,-0.20724054242208137,-1.023646084478531,-0.6215573200039447,-0.4295483747597675,0.12412485726386555,0.3846179096686583,0.7523947796905887,-0.652724078046669,0.7533578392112871,0.31275662633957785,0.5124138073784665,0.08875253966317823,0.9705768604803987,-0.42113636999111,-0.5161046521961845,0.015939052667001092,0.44077021101933955,0.058176933845147105,-0.8125908098541078,-0.6670577886967495,-1.0315057296735104,-0.20731320531176467,0.15022770352372974,0.4544859228443916,0.3646703599727275,0.4831606664343903,0.9119542278109214,0.3401459003854286,0.6116944376238235,-0.2076504491586726,-0.16188839761279294,-0.20766914865352085,0.010743374029288186,0.388831103407371,0.17534339400320306,-0.30692914162815715,-0.32808381034490625,0.4431027121041387,-0.6559223879061808,-0.57042479848842,-0.7886893214944558,0.9852945736750934,-0.19401110716272663,-0.23984631757046068,0.6720591141882467,-0.6504051404176974,0.827650697395056,0.033678642824693794,-1.071123644729224,-0.6565951567630082,0.009049646824750806,-0.157973186076043,-0.148261087920002,0.22512395795649018,-0.2564240452790645,1.3183497341903092,-0.07626719657681562,-0.9056442076949814,0.1751002374291362,-0.0973797311784208,-0.02865354637482023,0.24718711776222585,-0.29390245906829415,-0.03401778663022807,-0.11160178491339706,-0.9289804633766598,-1.0020321269082046,-0.9614239964444126,-0.15313889212347553,-0.1267716103686767,0.5138595138868762,0.05040619139268604,-0.9568966620581281,0.15313919178717947,0.42075990069802227,-0.9066500522072595,0.2681869902832192,0.5984337175116244,0.21332857197226227,0.0290772290534725,-0.15222326510642245,0.2560940351401767,0.40952902973542227,-0.5222340063103617,0.02371783929960243,0.23947975919238249,0.45291818334082623,0.5333210762713116,-0.4304670690296079,0.2044791210641119,-0.12835006348104255,-1.1821070857487268,-0.8041118577402259,-0.38010082598915973,0.9261244703895898,-0.4997067313239821,0.0062239032551623255,-0.43692563010261565,-0.25308371428221,-0.937889598818332,0.40728329261285406,0.21452001428153955,0.6040321534194698,-0.6375071062589671,-0.9471655264661148,-0.8723707560170628,0.045027099879166296,-0.17714510760702348,1.1839103190775733,0.9213654842054927,-0.271020759794191,0.5012470509377007,-0.06147268671805289,0.3830196064324436,-0.0019882946444290538,-1.063358128351527,-0.7646600476813168,0.34186022460180787,0.5577981195502013,-0.6986552549791409,-0.8357945339321982,0.9198045977346603,-0.017046813592099055,0.8019199223184905,0.040192609657468625,-0.31700645699606733,-0.2590360343598521,0.8154710832727414,-0.43299222131048326,-0.051853959127761154,0.2158704652881815,0.02897455480225918,0.14228886502895488,-0.08491271531735309,0.8423697887467985,0.3110698774081819,-0.9145118729253011,0.5060090389973245,-0.7944829895943392,0.2260482212237852,0.16622907319058602,-0.625173814890815,0.3389454566578868,0.6653408990767862,-0.39813884332824223,-0.5274241331570321,-0.25167067251802844,-0.040506145245149894,0.09743836097690528,0.9570426881181021,0.8678272487778439,0.06575522014477102,0.6271838843354286,0.004044170162103011,-0.30049434998858326,0.015443503843287238,0.9829717253917013,0.7345939549913825,0.05482172548379646,0.04101258028870659,0.9930937344555859,-0.45174836183308503,-0.3501931616808067,0.014688321570749677,0.5115344546237821,-1.433697430333587,-0.27813163611183545,0.1967158794951776,0.945855206673471,-0.2748109426350802,-0.5429682804584631,0.05811559139423526,0.7925651693015108,0.9448793011975233,-0.6106009602250733,1.1269382727578419,0.3968274354774763,-0.416479110746163,0.8022803870178801,0.628341642964423,0.2982697467393475,-0.3081962515657384,0.20710150187839393,0.4476305346349978,-0.9602034286404768,0.7950456670582029,0.6784731731187389,-0.8579265267829831,-0.012459596893058698,-0.5840580410170476,0.6470038660212735,-0.4587040406710725,-0.6389673743789428,0.8572633282858457,0.6262942035296211,0.7490630371052035,-0.3201280549599496,0.4720152535376375,0.09716420855298374,-0.4121973339602376,-0.5949020487710388,0.7663966085442468,0.015628286171964746,0.05256046461987906,-0.7967292696477409,-0.5110558113584431,-0.7575236263196687,0.6014521814307455,0.23881822532243735,0.47150411332163067,0.9543827752529297,-0.2951729319139025,0.008871720087944013,0.2741673457576438,0.274883058239519,-0.36421583678781916,0.819129174665885,0.06451105428817713,-0.8340195698146103,0.3917851942670463,-0.13708181546315265,0.2748502696982189,0.13706144887606325,0.6336721374214807,-0.56792869654122,0.005707331348227556,-0.6928355309052794,0.3517699068894811,0.549014346503407,0.29959207962068074,-0.9130964544209562,-0.6418219720448164,-0.5528353638120458,-0.0529583019448793,0.35593277134285245,-0.5746431191457942,-0.3259892925689063,0.5895186972903295,-0.33210769814102115,0.11882950393076652,0.7779627782890539,-0.16444408796895305,0.9404713436847527,-0.3857868191831151,0.599254793329962,0.14651572186677644,-0.7388901982953661,0.14465885681835708,0.8871659693944656,-0.11304541624178614,-0.1988760473310802,0.505285474291948,0.7851593602960376,-0.6605266651891312,-0.4793775866548635,-0.2073710799943965,-0.8984792759749166,0.1789554124580008,-0.8613677652356716,-0.5771128086474214,0.053472766314749766,0.6222808278649643,0.9173911797463632,-0.5860576775099886,-0.5258777899209324,-0.9062943048067178,0.04153285285987196,-0.404290860282698,0.2439890013364523,-0.6752299504892509,-0.23892801940742903,-0.363224677294546,0.3180184211158442,-0.6660547368173393,0.268599579263634,-0.6873087133310942,0.40676737701233656,-0.6009851244108155,0.018987932003113182,-0.6389060787623677,0.21698110892737746,0.34655487104008326,-0.20989312791306183,-0.336222934307172,0.3401246972127592,0.524251447777641,-0.22032325584134393,0.5062163196261426,-0.40633793420174613,0.9631882303341079,-0.9438642589743533,0.9050466717320038,-0.9081007854018079,-0.350266093500323,-0.23400085446621022,-0.44932888308593877,-0.12109057047927818,0.8455238423420124,-0.19906181160141334,-0.14308716710728708,-0.479596257269969,-0.28742243130409517,0.649931010207486,-0.5903931829815663,-0.18650182194593623,0.7041738386131768,-0.3157808811657923,0.7517365600356332,0.20538018387807,-0.926635029189276,-0.70699200542814,0.5437677789577584,0.8717780245662994,-0.21800191305026861,-0.28610179868155905,0.22666767720655012,-0.8944840110395917,0.07034562683052559,0.19704157755532425,-0.49031699582761923,-0.75446122139715,-0.7685028578520412,0.5607502428806266,0.8136703464815207,0.030002933262408327,-0.7216503583706866,-0.8150858438451043,0.500149540957755,-0.8774434009530222,-0.07258832734744487,-0.3665772591264554,0.8904299159398195,-0.5704594774061659,0.33535689585183986,-0.17501112752780337,-0.7636876462693518,-0.30462708829293833,0.23835333230221686,-0.30993008038215303,-0.8122810588656224,-0.11165416487524908,-0.8441241458897686,0.6889372300970477,0.3955142728309575,-0.6928020518685332,0.3766546353215947,0.4568126616135264,-0.991163613086876,0.5974785938016427,0.47841727507186693,-0.7007952398793063,-0.0654390363211832,-0.24925161341479085,0.41797675192139083,-0.8792476162418927,0.3056400995166686,-0.6382686774806983,0.5169195156704481,-0.10039582795185849,-0.5160586604184093,-0.2532172808350953,-0.9602041981160458,-0.39371588308936206,-0.7607237276615373,-0.9178253667442391,0.5490009430215622,0.5726355814455791,-0.7122906133218175,-0.42057158329146765,0.6130590905022093,-0.29056077555045046,-0.4199638743842821,-0.08892157370094081,0.32557550759541776,0.7984248989452567,-0.4753367303644429,-0.5362899450086713,-0.36950392219426176,-0.9573948763493538,-0.5140804770478204,0.8045905319132349,-0.6019150372715572,0.7170832259595709,0.6114216213911059,0.709714218062753,-0.05816391542093466,-0.4399154335328728,0.5856497605278874,-0.3501737882489542,-0.8666110177934443,0.8375945307755955,0.49200328386712144,0.7898885098782069,-0.6003105189051636,-0.030162955096580093,0.12438887022482305,-0.8182283526349001,0.05970949393653533,0.17673036602267178,0.8977344833734224,-0.4081486204774087,0.5082628064608211,0.5569717275756536,0.5075231899979279,0.8884808556508632,-0.27773442370173673,-0.7382786870737124,-0.5609279479188103,0.34726425210829404,-0.3910396120763915,-0.23148224786362018,0.5465546701448623,-0.7392476763996256,0.03452769655149515,0.5245514199331504,1.231926979247401,0.18179850926522448,0.006714038157947533,0.46117992977962485,-0.551712679559008,-0.34171855667633166,0.6252405341284653,0.8397268741338842,0.02458059850597938,0.2388742173943179,-0.11808236558032573,-0.5054464269207856,-0.4388486171495334,0.3372853581311371,0.675721794274289,0.7477009530249052,0.5062610710813291,1.0097497079877011,-0.8435942594222485,0.8439579008025779,0.935017401193321,0.10631859282585543,-0.53040284153118,0.3693534345507831,-0.6443097107211058,-0.04423210738372683,0.11179464517365581,-0.4495682307595023,0.4361582827804778,-0.44151851633771905,0.14753128036048593,0.3966010979517363,0.295109970340392,0.10319161889829029,-0.2499506567829261,-0.6601406814478753,-0.001036125217195895,0.8059666728505568,-0.08986792923024246,0.5007511778687488,0.09725224654615768,0.44195918373101184,-0.5714233294868829,-0.7910268643815881,-0.05176153430391081,-0.5946066138624213,-0.1695525791263579,-0.7529453141724638,-0.857634645555994,0.614340175061281,0.0431688595693848,0.19895809346555485,-0.8686473486417271,1.0429649608810112,-0.8734284699357197,-0.7400497155407504,0.26031802496538675,0.02373548729985243,-0.10679684818145962,-0.4264682555971441,0.760833112629021,-0.4550839730481581,0.029945842461793257,-0.4207175332696606,0.4907497448757939,0.27193761804738353,-0.139152321713648,0.09957949770431122,-0.6514531168502412,-0.5598188669555986,1.036741591338021,0.08237017876471277,0.07087829460171545,0.851658130965114,-0.9127159451159647,0.0360393825227765,0.262171180563173,-0.5027797330347935,-0.5316181880332889,-0.5003248826773378,0.21156666843377644,-0.7008211346181763,-0.7154052119628888,0.3749348233473804,-0.2483951370098014,0.2740926243858681,-0.20954709529498697,-0.011379070930798325,-0.09896503807695736,0.19949379141255932,0.6722859793618529,0.13450620747781133,-0.4857486165340815,-0.8273722810964991,-0.4963841011694588,0.7483542384386614,0.9787048977996955,-0.40459288165106233,-0.9661834089471858,0.4843290972067049,-0.526309688497862,0.3485959861669234,-0.030845936700498938,-0.9055310962944878,0.5414732503932485,0.1757389634510505,0.04505367849689437,0.28917892726956884,-0.103066856726529,0.10474497673319626,0.44706314612145776,0.4825159651598793,0.24141032167035742,-0.44147383323991896,0.7761460943863259,0.1436489077849897,-0.4838477329715535,0.19909498757707733,-0.5728317754463171,-0.44587908268097765,-0.4471250101739853,0.005819704745638303,-0.64268214176008,-1.2347610758906857,0.24666098367172343,-0.4410331170782841,0.28831788170029976,0.7149950102778191,0.460292362194808,0.7898774287522001,-0.672005269346187,0.050018068805292894,-0.851353858866434,0.7231000834533586,-0.2102808284863201,0.39368429346630207,0.41295624464013436,-1.0241061021744107,-0.08605388172732811,-0.800723597355672,-0.3721176848455794,-0.6960724842012329,-0.034595501309191715,-0.5723002609159831,-0.2783905391402403,-0.15799769539634043,-0.5881475810364609,0.7540952837883208,-0.7349657483052483,0.16338683318498265,0.7134685516049266,-0.7575648836490569,-0.4876453411998834,-0.2777930979084143,0.2549642125723215,0.10486647409237773,0.20273111558138834,-0.5268569962949143,-0.004002534092412495,-0.8072623371528314,0.4389283021719197,0.34813270846860683,-0.4604081216536127,-0.13888617733888708,-0.5522109935401665,-0.8844252605314865,-0.12565556708019207,0.45384172962111974,-0.36583302565338405,0.34431617131898956,-1.120583986496671,-0.9302076833169951,-0.24341716548714665,-0.4341463327358804,-1.0677882986740646,-0.45058193307125516,-0.061735631783844315,-0.18232992597683428,-0.5611520674181911,-0.17568598022388812,0.10540303151444289,-0.9360804400853221,0.007973577403931559,0.13470072748941544,-0.7866063125343757,0.04485342281591794,-0.6803479797596633,-0.6972038283265468,-0.2005699081437123,-0.4656805149734784,0.6344607530293948,-0.06464213201249781,-0.3310554993617611,-0.12010528423336685,-0.2198921433117417,-1.3222724700306172,-0.28280996099144734,-1.0651340746841336,-0.24445502207407874,0.3684370979053398,0.09399223214189806,0.8428656307595573,-0.9865507839170697,0.07414345198736355,-0.6783116271070647,-0.575201399971781,0.5872842034758017,-1.0084481014561983,-0.847894393402768,-0.2651640241445678,0.1851395733711857,0.5825427859740349,-0.6031466847803733,-0.7385513512388899,-0.6966039316443459,0.38452063707446826,-0.560428470569138,0.5662101553110681,-0.22038637542847475,0.2206904942108133,0.5137335899017508,-0.7851677003566232,0.14517845157766587,0.12734405787582717,0.16689632421873044,-0.7234769146866095,0.3289969077716195,0.1744699036759576,1.3765805502165234,-0.043807273252640756,-0.048213577328217086,0.7554953834376907,0.04056106359076545,0.03300652292643226,-0.41833179107942825,-0.03703615562866104,0.28899240069099086,0.3529453759329946,0.3821027966247636,-0.5132288568673229,0.34560969583007384,0.7606541393669465,-0.5467343466903076,-0.5487736384478632,-0.8031627743096083,-0.8602558792227851,0.0933359384467286,0.5469937073559773,-0.3437962408059868,0.8972321049201771,0.031597801780002106,0.21478994610316451,-0.10331942711440797,0.4766365502351732,-0.47754544560162643,0.5807203429141492,-0.36203197793051406,0.9782950428589099,-0.10981866692859468,0.8540709331027381,-0.5126736823268255,0.774016692845111,0.22494903815998804,-0.4724957792505474,0.2908826660215771,-0.5621622047037388,-1.1192518742899553,-0.7960121593054273,-0.7116856697901189,-0.01848137268847178,-0.0379328498981113,-0.8156819920124201,0.6818105675582,-0.2057184987634143,-0.39170676168469765,-0.03981803834992396,0.8616461441436352,-0.15950531842039647,-0.660992886590079,0.0552391277683115,-0.0656455309930844,0.32459026348873793,-0.2840843761515649,0.8582274166862227,0.17874447319060655,-0.29576706084514653,-0.9673375391970969,0.4044139056135398,0.178105583389216,-0.6199765572956142,0.16377942695629757,-0.18978966350354248,-0.3468496706112394,0.14395119053298683,-0.009030881615554619,0.6892908546774945,0.38823134229608486,0.6689285453198578,0.754499157914382,0.7918326232855639,0.7681544545557824,-0.4656724179409002,0.30147330792682353,0.9929412748069675,-0.48272791334466103,-0.49160800722694287,-0.3977440201947756,-0.6634076828808505,0.4854402205923209,-0.6326659037041017,0.6974675886865389,1.1216800468064771,0.30222131026570914,0.4254338688811361,0.11455456503573085,-0.8340550581640043,-0.41623943978930766,0.6620091434128856,-0.6954446665201139,0.15493628108768523,0.558770443419277,-0.3555827419593496,-0.8103691761279539,0.8205745793776544,0.7350709615570148,-0.41275104265193785,0.1750555173220353,0.9963493060773436,-0.17673351333617707,0.6570166626170899,0.23155311997606717,0.6696689803590303,0.3252407993376074,-0.6661642285035017,-0.842957883516444,-1.1476312571710268,-0.8593532165360964,0.33791484719210874,-0.9899300471605212,0.3481000790248973,0.030478163520341904,-0.48231522642378133,0.5396952323996002,0.14752427403682777,0.5057262438747634,0.9679091097305538,0.6758157820707026,-0.4477277318586645,-0.6284257937354621,1.0183929748361626,0.020614380897340464,0.70326168522349,-0.4884617372280998,-0.3839218769689503,-0.2951455808977331,0.8369781691347951,0.04393817158287683,0.698749439873827,-0.19553581946484802,0.6923455583877113,-0.9071925622367564,-0.28193608303435685,0.2076117088904488,-1.8567595863695732,-0.6600275894284352,-0.23305241438253557,-1.5341708979017625,-0.02407904899075184,-0.938249478779738,-0.5737229141920379,-0.7223561797553931,-0.3555173184973843,0.09883780216454953,-0.5818599805687563,-0.14885719885245602,0.6026300483194809,0.41345869338388314,0.5905468046688257,1.0330829667598989,-0.7890460927759799,-0.16788224794063947,-0.8324843946373569,-0.008185247162280442,0.027885950523066638,0.48396464456183874,-0.08237569084298549,-0.3780826638242646,0.7744278945558563,0.07183651638831316,-0.8910831241342732,-0.6803460451288482,-1.5690497955103389,-1.866617570710237,-1.1997403813076775,-0.8772080992180503,-1.6543965247413213,-1.2728159452958632,-0.7387702153084013,-0.5589672991860642,-0.7230030628937367,0.9018252356969748,-0.1594768615420403,0.017305654860665216,-0.016243214330513733,0.6711149458278471,0.028718126723044603,0.9806758909188752,0.3507119105976943,0.26455884926309226,-0.1038065739795231,0.24256967245115502,-0.04950030299351482,0.7372432266174549,0.16919673343471708,1.0484181237094692,0.4384832242665253,0.9867375617581531,0.7710391438366875,-0.22320396924568664,0.7192341794206875,-0.5565709833507335,-0.9053420730939257,-0.8613076202230241,-0.8983441441429704,-0.9356834054383562,-0.42930713423300154,-0.2946188988071334,-0.14951337427778144,-0.43815019848120096,-0.002561609651376007,0.5778004532323965,-0.19686119900078297,-0.21816164946860214,0.18137979751593303,-0.5346625564590096,0.027431239759822548,-0.9851145671762185,0.053199912235647705,-0.006495627824576589,-0.9685482063323001,0.5130524377378729,-0.8578781385128529,0.29312032032910634,0.6661232419657465,-0.4331294992832768,-0.673407428363024,0.6323406211272948,0.6217162852974224,-0.042447158193503975,0.38214738413317006,0.08639156576941136,0.6858639703828318,-0.17083686769868645,-0.1297412161690059,0.1203421307297166,0.15250439120492995,0.45884881846531617,0.4233981770134819,-0.028406392670472933,-0.2101594080009853,-0.379302160155089,0.8123947942957335,-0.6157477477159944,-0.010953216390754772,0.271117228707649,-0.9796665788532882,0.8600455765459563,-0.23852916624209008,0.28906394689839665,0.8703625924279346,0.6917068726137957,0.8453737465548444,-0.15127288602060565,0.9836572498561599,0.6562175904448122,-0.328849081237538,0.2868814788382173,0.16907652608695464,0.960811256866059,0.7438945237770163,0.32524931679550695,-0.38456302338236864,0.8953944711934619,-0.15196113287138316,-0.41156970656943254,0.4327803440896486,0.10298179771114285,0.6632557702731048,0.11205286070039175,-0.2664464427891146,0.4266453127188133,-0.9530138162876153,0.7096721663559526,0.51293282332138,-0.6903985996707009,-0.42076224737970835,-0.43888348363068097,-0.35668905629990905,0.8446289503483974,0.5609752496852182,-0.07466164460878863,-0.2134693888092573,0.12571890787953385,0.21734584047238342,0.28376771942248824,0.5770893403018861,-0.39795090586518156,-0.5169133747050878,-0.5536665640611234,-0.5244121834867126,-0.14102178250598946,0.2565687173418619,0.805265305834006,-0.12623536323479614,0.8749149995229235,-0.13419003960687384,-0.7666132702565507,-0.37555984752739563,-0.5196043057492014,0.8435278306965032,-0.7208554715489719,-0.946419526887541,0.4613489827086681,-0.5578943557320637,0.5293836326923798,0.7088114325625896,0.6457491448990151,0.8232940551301361,-0.11132655184064917,0.19225844207933027,0.8970601686931937,0.8089041458568286,0.40206618715935244,0.13469698736941826,-0.1942187807727433,0.5878715934121239,0.2714245246300604,0.40230329286260635,0.7036662089685226,-1.3023193012405192,-0.7896823064484824,-0.07374230391613754,-0.3799106543367208,-0.6806204841751583,-0.6442090603895003,-0.8566607195962501,0.17165441008940222,0.1115150214938026,-0.6546374256819903,0.9002395619160286,-0.20681432517327858,-0.36540593915620145,-0.2351184072813377,-0.05824798642166873,-0.029354004553276355,0.8190546071928795,-0.6272067748868578,0.56045057651714,0.508514560613399,-0.06601644289444143,0.6072420677385229,-0.13635352628171607,-0.13201362625903768,0.9005774837970119,-0.15022275376557603,0.9194721462924366,-0.04938382853868757,0.2379349336005366,0.20902450058943742,0.8160422019152721,0.7057870160251646,-0.4846576367136674,-0.47495387795832744,0.25977390627088615,-0.48555082162207247,0.020689213660262582,0.6292137602787472,0.9096648544047257,0.9348444181625875,0.2940335744476428,-0.02736371042723018,0.7838375457741911,0.6047853224117958,-0.11828272835246614,0.9090137258763005,0.12491572047674943,-0.7059630620353844,-0.6974702933439444,0.42766932507043415,0.03177427906292473,1.0594003163929808,0.7431062741894582,0.6162472382642439,-0.23638322583691976,0.24235299326151072,-1.1698732805197642,-0.5544492235474435,-0.1432300329457339,-1.1122615242432505,-0.9597437940908939,-0.7120240596260209,0.11248993749877363,-0.673511616935296,0.477944359229537,-0.5728381447025828,-0.18202068241646696,0.8276693698527353,-0.6681162318979188,-0.18156618443283046,0.7662100443650479,0.6627330952393555,-0.11222644128077529,0.6046801969006173,0.8120243857678995,0.6660538220776269,0.25488431131957134,0.20089966162036563,0.8038115429872315,-0.4159760193931397,0.9258995831272079,1.009742165534186,-0.6055139428853733,0.4224099173036282,-0.7470816450665789,-0.8910748981286474,-0.9053840367868001,0.2141228141024662,0.11400201528700922,0.3875724626515193,-0.6306978799452774,-0.6592046315405808,-0.11238060326390292,0.2152536390280415,0.8414708037745464,0.8539830085636868,-0.1773519891612343,0.5439704043238371,-0.8777425799390368,0.248028014128316,-0.5821228512757837,0.5991836199580667,-0.936802740369723,0.677285713008347,-0.07349770593506044,-0.28664280734951736,-0.7253550192225265,-0.10475651783790334,-0.8507770984494241,-0.9277524826904974,-0.5962221159471721,-0.1145976655176702,-0.44026490423144576,0.7365060169116081,-0.09380067349875688,-0.3548296720474395,-0.8009226629941443,-0.2660576588831518,0.8112201969708968,0.7732445228672515,-0.3789888258161762,-0.5370869261068492,-0.7655186826309568,0.5802693262792082,-0.4280353009177862,-0.9990392423180554,0.5420045251815278,-0.9684560395351183,-0.2772860073648349,0.4501723090349794,-0.8529537588067293,-0.35676407967494317,0.9678853356544217,-0.49767230363401316,-0.6985610476277522,0.3174236532511887,-0.5346223498490559,0.017738092492213475,0.7095109445280494,0.21484210792926173,-0.8041344995379445,0.8908281894917542,0.7993585110934132,-0.2232855953785433,0.21747271354810138,-0.9052308862081455,0.9152545041323508,-0.059408907600740246,0.692446346744674,0.5621593697606007,-0.8465355555082072,0.7219249462145931,-0.428381190356945,-0.4939188852912495,-0.6792360031584583,0.34666852178909946,0.04954656525862222,0.3768267521363232,-0.2410730216382947,0.6213534899093156,0.7533824533584089,0.5424271011664796,0.6541454040766183,0.705015555454658,-0.7111292740985424,0.0005867464950713705,0.049609781275267745,-0.1875942373605078,-0.6640806571005796,0.6222269805426897,0.6544622814135032,-0.6433293679521827,-0.7377130033069219,0.11233615933166186,-0.20913770509577567,-0.14244465044998456,0.11592791782804612,0.10906613427323175,-0.9077604446989749,-0.18177139541065168,-0.6459362784879517,0.13002582568252774,0.9696772261788684,-0.47811467712935385,0.11301595231074679,0.1332277401180617,-0.4571369107780931,0.5782440980074697,0.6235682962050265,-0.15938130237441892,0.3286318280852408,-0.37153301274851774,0.8270735587220478,0.6389673497591174,0.2827587127864586,-0.014945632911356536,-0.6665972758057345,0.31937588390207144,-0.5780878048435916,-0.6351337325338157,0.7890856421759302,0.5429636626286067,-0.3603284654622728,-0.8450274508497321,-0.7394392688357986,0.056000943726269625,-0.18608631000725784,-0.8318222118675231,0.6113962829255843,0.27573763049728517,0.4418100468542425,-0.6388650903862088,0.2259947446470929,0.7877641503254857,0.6118708688915258,-0.16064451428845875,-0.20379678781930172,-0.33014467161939237,0.5158851507273373,0.9905393514187605,-0.44489651817541914,-0.28966358611272697,-0.004335030180543721,-0.4399295295597205,0.34297872845479854,0.22624247573984096,0.3229973564729483,-0.1580464112480374,0.23031989011199905,0.10525444827580473,0.17475958165597594,0.08039224860587103,-0.6042133836016433,0.23542943954661708,0.9682432240887175,-0.06854341834236588,-0.1922348519621957,0.7973752179779237,0.23441445367774172,0.3455416441663232,-0.482931712577553,-0.5007451361291444,0.7935712777118981,-0.38009604813258396,0.3114319623873603,-0.10557188878172562,-0.6941523724825147,-0.7281356080484191,0.6668867917942874,0.19261530364082252,-0.08429518971092718,-0.3140773975124882,-0.2369457504977988,-0.18149624443369802,0.9496669401267752,-0.20596926568835666,-0.34115175797269437,0.37009720319907935,0.698525012298501,0.35840539667261434,-0.3329402304442613,0.5539106703144581,0.38995528997568824,-0.9119283538936653,-0.08537373290021799,0.4746582654194694,0.26267977008845267,-0.15309260651561513,-0.20415385652507817,-0.8841369939923838,0.6524558441075987,-0.8307273615165546,-0.8708036699582751,-0.21135272827268906,0.6986068300194078,-0.30566701432916726,-0.3813486670494582,0.04941302734265598,0.7301380912885548,0.05440595467846349,-0.40465866479068646,0.9608857888197467,-0.06452361592198035,0.36920563767555437,-0.04081196384576125,0.1736977955751827,0.2811830116880143,-0.4986643010360536,-0.5812724454768414,0.3915073429312771,0.8979615392924547,-0.5385485772964096,-0.9623918098117896,0.3659890652368365,-0.3198363686037331,0.14206389549457066,-0.0005917416395100683,0.9744916947299593,-0.37259325687384987,0.40670749660965394,0.4243961470106256,-0.5617495360259198,0.1880341604306722,0.40852220577797577,-1.0250776457054909,0.5062878324967347,-0.23236964164384963,0.3657518737905329,-0.4119537691254297,0.0779465255649346,0.9704242691636906,-0.1236116887244003,-0.12618556123986777,-0.2917747418468126,-0.6523304758895981,-0.23365110185312132,0.6290341058986337,0.4166573772772556,0.7486289188126968,-0.5118696814065756,0.3967197158908591,-0.7754047575378888,-0.7440728922015127,0.15136300663867383,-0.6701078139219792,-0.6051708454225124,0.33207180343738507,0.16047090117992246,0.08732860433391133,-1.4723675461750076,0.6656455634620992,-0.2881925154907698,-0.8805677822501633,0.15814426708690896,-0.12371822449389183,-0.34785742903581174,-0.26076130313949875,0.4928613027417335,-0.5280415687477015,0.6026814886294134,-0.43208990455193114,-0.26729281272771227,-1.0025549958546929,-0.8523848675497047,-0.540806336545791,-0.6783256388844219,0.06472993739443858,0.44305583341314697,-0.12433663751236312,0.7284372051526767,-0.213852347904105,-0.029517111013533503,0.26768547405604237,0.5312928116490813,-0.046882978261326855,0.08642708995087256,-0.2520509450615695,0.39059410726564897,-0.7741665729741828,0.230244183489408,-0.28857453145357337,0.22734220109966713,-0.17529277647675334,0.9126205936018666,0.7235272182665182,-0.1815894588518674,-0.694938725587803,0.05992559850699693,0.6862193855757376,-0.06251872662275546,0.3958513805217812,-0.4969812217639963,0.059443611782390354,-0.47832000754622495,0.12692677528872193,-0.025171089214715548,-0.6728969079900438,0.8031605487180414,-0.9667963063135134,-0.5307392173643507,-0.6331317675274597,-0.49949501997081086,0.1381346701138789,-0.6524707596775688,0.7348019688563744,-0.5824604545661177,0.029863932998631937,-0.379213737587783,-0.2822079812657648,-0.018552806412839237,0.7593858961968679,-0.11879359985405677,-0.7015953104089576,0.3094842613178034,-0.29808672513621554,-0.45215092330195295,-0.6212371477773995,-0.7583526215275964,-0.5266349445620349,-0.9852194802455481,-0.4422816265421682,0.1066725352697896,-0.46494306375923056,-0.4665220493371419,-0.19484706467071103,0.8287691011008731,-0.8114201577215597,1.0289271475930517,0.13305558732424105,0.33168100621495444,-0.06850217821444331,-1.1363060145209591,-0.5699929681966893,-0.2088109005669876,0.43509792476184356,-0.15165381143978507,-0.10518484870898032,-0.3285714844684721,-0.25020231791643655,0.3663815517142002,0.03850310876592277,0.12083773279859271,0.32965465113854087,0.11427405254885376,-0.9879375012432045,0.06342091748994579,-0.3695704240264703,0.380761811839461,-0.9592302758295369,-0.5234759682685807,-0.8990761415823535,0.698460891182405,-0.7039375356729305,-0.3071390744933675,-0.7501561944879487,-0.24956177945348879,0.4596951880876954,-0.7613931912961326,-1.6070320844210275,-0.8588687546217333,0.5662536619183338,-0.7036363979118275,-1.151731876155453,-0.8816624903500494,-0.8071118081443627,-0.722609296215759,-0.5242062134965298,-0.45204550374222846,-0.20736471406080786,-0.9527987992716234,-0.5541697680303009,0.6013850951789816,-0.8567243832300581,-0.7370600817635687,-0.28017710024386194,0.4791199067997626,0.4667581382237448,0.34259887625266994,-0.8542432899693744,-0.5823185729078924,-0.4513696540740977,-0.021347382154049584,0.9105571556745143,0.21033733070731367,0.7765151373343553,-0.8210465057669052,-0.7153916880002673,-0.752066302346129,-1.447803570969623,-1.0814541395178605,-1.0212335414995313,-0.6579304859754594,-1.358703831861234,-1.214231229193549,-0.4222058865682692,-1.688110211029418,0.35517607660948025,0.10648101718945734,-0.3292338595613257,-0.7009298337523577,-0.3380475170552957,-0.9796310409637994,-0.4051735337788679,-1.142330453557568,-0.40468590924242515,-0.7288999739159732,-0.10243968700256545,-0.6050149595978807,-0.952743855832836,-0.09649930478712937,-0.8708234132853955,0.28582794920445564,0.7115367139606299,-0.7804690810792135,-1.4444355956028596,-0.7187422701711897,0.6338336846987167,-0.1158195202020112,-0.14625297446578206,-0.2655475861848932,-0.7226736418289407,-0.6100564068516201,-0.26574512271574674,0.4964284537893265,-0.7379037084308326,-0.08838921931190431,-0.6100301878522226,-0.39464470651900496,-0.793858189462663,0.16435344406417302,-0.15000766986843525,-0.47895906709686875,0.34217443747974313,0.23767672187528674,-0.5765806372023553,-0.16275552021957784,-0.7205560846520709,0.16724279683792376,0.7482830800500226,-0.6968227727660593,-1.155007578999685,-0.2903610697785319,0.3193924148718755,-0.11207806210182801,-1.262407033785764,0.0560624084603048,0.7840862007743272,-0.0016669886013525848,0.8421143423820867,-0.8531421065433648,0.4563472024845488,-0.8310002679483616,0.15322276802388363,-0.5981450945416545,1.0694461550365748,0.1104368639276314,0.06909805585921175,1.192147425789394,-0.25138058793642615,-1.0788174411105664,-0.20498223364960208,-0.02492333994753023,-0.14474591450569665,0.05228944998092122,-0.10134769091804507,-0.5608109566879225,-0.7840858674973759,-0.1494999145927836,-0.17401989023240003,-0.21573195706035003,-0.739987846519338,-0.23806908281106245,0.6089255555633468,-0.7114705587918423,0.11872024920399538,0.23373334920212102,-0.47739187350848417,0.19205100479518838,0.2739499723728742,-0.41125746629562865,0.3847620079729944,0.7490727171529293,0.35154675294300386,0.06254386317555616,-1.133188452117851,-0.7010648930212432,0.15405054744735697,1.119076425828964,0.3654288368883939,-0.4114980242401826,-0.714382356816876,-0.4600068314957085,-0.06803932642262978,-0.21182785303858326,0.7285176047163712,-0.5056620933774622,1.3079055238873691,0.19091062829078614,0.7231050049748163,-0.26458721904781307,0.6931166427417137,0.5794230154980943,0.6343231284469847,0.7013043816408754,-0.07612853217201088,-0.10934076933096466,-0.4922642632657566,-0.46169720663201913,0.08406662638745278,-0.8648315384610594,-0.7585146803076501,-0.012868874432119478,-0.49506849184058593,0.5427384083694654,0.06505505835832577,-0.4379730114645395,-0.22487163393602916,0.8355405731490636,0.1558273828647018,-0.5118824472345193,-0.9317843351879473,-0.29055147576940277,-0.38778008199843345,0.0769914776569457,-0.09024344272544253,1.1356937749654992,-0.15206604796023074,0.9486922891100601,0.25541116141967457,0.8867476176105771,1.0423769070082516,-0.04631025281848861,0.9668237891938632,0.12713656744373864,0.43258805788438587,-0.6302760102751821,0.3178061618387278,0.21705461308435037,-0.13714632479036212,0.7210756073094964,-0.48247233841736376,0.2130569069567896,-0.19641615584953895,1.1122099993565502,1.185950580523538,-0.45857877382169016,0.17378102432234985,-0.29833878551840826,0.683606090796969,-0.44409934966042447,-0.7332887352022117,0.2991584446357203,0.3655774063984754,-0.583248211521017,0.9642217301518762,-0.25509116678117816,-0.02490043470944609,-0.07617227379027727,-0.8489010875598391,0.727417941853255,0.4166030420406534,0.1314299151840959,0.6407576537005335,0.4663012971887206,-0.9639546069452949,0.19605698875005603,-0.10153068567915265,-0.37470843980422747,0.6791616667118725,-0.5958196704773319,-0.6928828233823965,0.8101615957205756,1.4307338718036258,-0.0661676776828888,-0.33032535716882744,-0.2814073258904076,0.7255363037105789,0.42970535243738733,0.6155975461525234,0.064578936673806,-0.09363708603709481,0.5453950125174717,0.021522916033919412,-0.7376104279077664,-0.11374543476736923,0.7073717775649119,0.6352490347075787,0.708136198450087,0.8108766716501434,-0.36426986095258923,0.022219583677064603,0.6861177877136301,0.5606666947911706,-0.443480014853906,-0.18075205680239784,0.4198406271106421,0.20688274389601288,0.9722093936074854,0.8023367169760556,0.4893797979032964,0.8423419694043455,0.9927339353995133,0.5093715921667721,-0.0019686705068886036,-0.5425228721237305,-0.581158485455238,0.47908152762337197,0.1970052367799115,0.6775603653614037,0.3147485515466057,-0.5980574430151935,0.9899529297325789,0.6229325860740828,1.0800978065893792,1.144969197904182,0.7481646208908334,-0.5780733826823703,-0.7816184928172144,0.19783149501103753,0.31043343751469366,-0.9187644717415951,0.663475463150461,0.5619147913199427,0.18491354059263054,-0.23292687185977684,1.2438609286960745,0.5575819823445808,0.490625084501921,0.26270355931580197,-0.22840562811201454,0.8687058265794,-0.9545269918676225,-0.9051949554303087,0.2658657096987578,-0.4543392051909652,0.09972897242746583,0.8694510638694651,-0.5973674642379752,0.4954160339534929,0.1767104058762236,-0.44211831384535755,-0.382610568217557,0.25361013177177694,0.1928243378578311,0.807891049963354,0.28514512387723706,0.1348630525119207,0.19076641206075834,0.5082233717743568,0.1038667269336504,-0.15139738937488156,1.21327895585477,0.33648763695644635,0.3766527649259129,0.4252717160539654,0.608512221675996,0.47134187443270836,-0.6516303755276183,-0.6204162303837358,-0.5928743996909733,-0.6612056478222745,0.14346224416854425,0.9892427531991718,-0.013826761437343642,-0.4419716909663521,0.8440803790823532,0.4875127649383217,-0.1553723553878161,0.5686592036196605,0.24039135876233525,0.0008292700222362404,0.1784985690058587,0.036806434776535155,-0.3802614736920327,-0.8242487275076432,0.4135373772116564,-0.4051843405413498,-0.23924082633651705,-0.7433870209009056,-0.4756682882316334,0.11207627225878695,0.10676375809987208,0.11387331901159133,0.013388200835865817,0.7275025151806457,-0.8181322415581432,0.9926598023197374,-0.855661988951389,0.29712392385836073,-0.8284218660082947,-0.8464356998738083,0.5104960261749654,0.43502584736754346,0.11741755151209883,0.2962853344631423,-0.14776588475615482,-0.28035649439263544,-0.09615242725287636,-0.7430793649864509,0.5007801181656552,-0.9459036382784037,0.6060932517825849,-0.7101850827029963,-1.1418276479677913,-0.07163906966948173,0.48076688337425605,0.44181114300242313,-0.4985861303834986,0.6115320535918405,0.7561139671130388,-0.6206302291377522,0.4080087703914671,0.2494331308273189,-0.5148533467032452,-0.9867652123951558,-0.6471107700184191,-0.6101882167982295,-0.14539520366322578,-0.17009791746732206,-0.28473455639849693,-0.5903297180806726,-0.15366498276215879,0.22833626577884208,-0.4191591752065357,0.1090696227274445,-0.11242264870279167,-0.40411959053122265,0.3145576495396767,0.13039097193390625,-0.5408543111818249,0.02679682634940971,-0.6384257161566156,0.3384453227987718,-0.4311516683155577,0.4127432972512797,0.445578600905315,0.6091855900374183,-0.43189345579369115,-0.4223499817626866,-0.17335052092118836,-0.04665613768990883,0.21652308805556353,0.9552580170298786,-0.8145140142100471,0.335635445626034,-0.9513337991943971,-0.16018130378847895,-0.17375673464103242,-0.8516967255743232,-0.21047524189014447,-0.5468716398597595,-0.5809770337419741,-0.42710375799933314,-1.1317930005622274,-1.144248147244328,0.16758477678004843,-0.8634950037773504,0.3423232270835525,-0.6615522430277548,0.17852999755740606,-0.025512608692284888,-0.9245474570339247,-0.34475932195416414,-0.8615819217400034,-0.7468741470883112,-0.5597198197700871,-0.20210423090189097,-0.36363240565871496,0.7686022417699542,-0.5033598488003774,-0.001971091805062386,0.5293981617925849,0.47641470798304786,-0.715414839274205,-0.196831714125828,0.9895504549120375,0.82431091148645,0.5139132614222182,-0.13187295071283028,0.1891898971672616,-0.7174954564964982,0.18038202939141842,0.0007907394067869465,-0.013902709677614148,-0.9916695418950703,-0.5873372608103383,-0.7260415195574994,-0.7547109623863393,-1.0627389628221324,0.7833022475404979,0.19296291447045555,0.8007819293253406,-0.8865200296303879,-0.8002346559431225,-0.7245679831828089,0.4770036551881049,0.057540115734930036,-0.36445714907846005,0.758604888889213,-0.7177888576679037,0.36125186887375094,-0.7672502291844692,0.007127245281260741,0.37945399472686714,-0.9703195026585911,-0.054410663736653486,-0.3152130336821771,-0.05562758918265265,0.32046444401233615,-0.8523357932453791,-0.4811383098925593,0.06988030272633926,0.02381655114050102,0.31284998081175897,0.5317327235794059,-0.1932384529011765,-0.6904489805244447,0.6600091555617692,-0.12794856828754175,-0.01511496925309514,0.47846252483078056,0.4449799523444793,-0.9015278058398926,-0.18514498961863923,0.554971413335696,0.6832767820732297,-0.3579690952867436,0.44305962870197924,0.6655867823668726,0.6303239662310614,-0.462228502524908,-0.2906085261680491,0.9954392752053813,-0.5970630074272709,0.29253378139297137,0.1060251122001239,0.08677821744273473,-0.08470801691013019,-0.7564137067283021,-0.7626698819704085,0.009820022015207375,0.8454937279393728,0.9805517408575839,-0.040944766493540286,0.34138640596913716,-0.6593371424796179,-0.867510153690948,0.5668438831259659,0.6911468174563866,0.45792572294258527,-0.2551356032258201,-0.9530634822489841,0.7414327298733261,0.7268526082478619,0.3533607906119294,-0.7237100050577325,-0.18848122362577424,0.5930362846241861,-0.7066120382672405,-0.916233034374774,-0.9482254212465999,-0.8396720207277918,-0.09356150635706012,-0.2920032938736418,-0.5242516047814959,1.090546715821043,-0.2604273025980673,0.8141425413503132,0.033341191548810545,-0.6419057222844481,0.3519134875488466,1.169074980812449,0.5832802942069036,0.7390085543216308,-0.614853572354531,-0.511327866184739,-0.4822854106581998,-0.2694237710862777,-0.5453552060008922,-0.3206954927953092,0.25243474029200996,0.8580166485872542,-0.45177130079893546,0.5779281722553844,0.2223761000436446,-0.5426438853018862,0.828211097741065,-0.5772833649178002,-0.24114120348559354,-0.4607676483326244,-0.8394442592204655,0.0825407250447856,1.0869947904581398,0.827349040694363,-0.4241371903807617,-0.6376201874721672,-0.4834909912230932,0.5238245162357035,0.4160744187349894,1.2202501198476357,0.9484076716837587,0.3422227521862873,-0.3156777525184482,-0.8771330319738941,-0.1663261050055535,-0.7535059394861122,0.23471759899885,0.2040735519835183,-0.6273260959700748,-0.6985485209120197,0.5789926817282152,0.10422777549425155,-0.174311432503941,0.2634540792554232,-0.46842982545697476,-0.7793628271083481,-0.03782322695913795,-0.915702609956121,-0.632525574483902,-0.2770511286822056,-0.43704032203472565,0.5811048957254016,-0.289318230266851,-0.6422568064418338,0.7738661676046377,1.3450424218879407,0.32795792907905547,0.4235563382784479,1.120996626721237,-0.5125230739781411,-0.6174316500090625,0.9787654450955674,0.062633414777941,-0.7899185451143966,0.7528060906107884,-0.9135854656279611,0.9933829593376543,-0.006853987841925515,0.4107564771355799,0.7321434391244594,-0.014932107912455805,-0.023185673808124196,0.04077070864414556,-0.6198798908775971,0.060451111631214964,-0.4060063132866498,0.4648760002583468,-0.2612598560653424,0.12727843115193807,-0.24291582061098882,0.7865023777977604,0.4182533575904139,1.1819514596328622,-0.35594513552155316,1.4276207559276872,-0.6128432339459328,-0.5326219633235701,0.4623878062492371,1.0242369177996613,0.3205992168246456,-0.6043643883460744,0.4182537631665752,-0.20094318589552448,-0.40814504298934345,-0.9506167161851156,0.0976743545382972,-0.2147461520178311,-0.5023858869310109,0.6770826165396631,-0.17166250246004583,-0.7768254354951548,0.09413686774823647,-0.35352068501799727,-0.3616474706223269,-0.5676715102538737,0.47932665269388136,-0.48573955298430954,0.2671816105105703,-0.8734595897043087,0.073436323348813,0.6382993620989028,0.014057723449377625,0.7258641710200867,0.7498201777087462,-0.5352792853439052,0.9211437481172888,-0.11834309909775804,-0.10946884540337656,-0.30524957659343377,0.26797957946320466,-0.567136815829493,0.9675205034821368,-0.41325777615639026,-0.419620625523456,0.5180452305511151,0.5303363768398222,0.7373030165235137,0.17468774545735188,-0.3587647133822996,-0.5526366387922036,0.031100267973770905,0.6071571496150491,-0.004916364170892144,0.3686142949818022,0.8201175994715152,0.4698129315326698,-0.3368000717967672,0.11316041679025035,0.04343267247673404,0.26920372181879154,0.21223221011319957,0.45612570691891663,0.11745004708602423,-0.5520869314011918,0.4421621798893356,0.3481827537977131,0.3338804069478391,-0.24547087091576106,-0.41624438458905555,1.0642271732453914,-0.7263421611319553,0.7680495793987182,-0.3109664023192981,0.2829445633507843,-0.5205701307680157,-0.7075837639527673,0.5295282176934405,-0.0764467581754595,0.22689328734325706,0.07619909539149645,-0.27960459378744373,-0.9503935792466003,-0.5906600484152377,0.10744855841919478,-0.504992140825315,1.038801589243428,-1.1695529228773678,-0.42768870345356447,-0.5261555016083379,0.3606426663551348,0.18593957435303674,-0.012921409262835254,0.1122113294070466,-0.4919383141709741,0.6979585989016652,-0.7679297555451277,-0.10437526477401728,0.28643613426965386,-0.4899598249941653,0.6631323565000193,-0.7935526829833566,0.28329234221583827,-0.6089115860277594,0.13344380667751674,0.5383592049386405,-0.19820783368400144,0.06286826441211825,-0.5256016830981284,0.25884169554825603,-0.051170635531811934,-0.418121492746713,-0.219590102821507,0.0599097818889608,0.125874094109292,-0.3344180560905403,-0.4888399905624452,-0.30146230694862086,-0.24237569121630498,-0.8113754011322386,0.3072125768353769,-0.3787925022093762,1.1674725227616518,0.4082665924500553,-0.6423217310109216,0.27964705691145597,0.8841990754358362,0.5937358069671453,0.9745337142391663,0.8846796231886491,-0.805374641112549,0.41587799606208165,0.7587709781507401,-0.4883708510141987,0.9646463676492876,0.042644406804593644,-0.5816490240196872,-0.6583671337756206,0.6284770791941149,0.8697327060035029,-0.05070106822808731,-0.28948050959273275,0.03074575131966916,0.6105344652969563,0.10183255798483822,-0.33855756562762457,-0.7115278570452092,-0.17490717253088997,-0.3238966306934313,-0.2590210250992859,-0.431156880591237,0.41368160237997575,-0.06299471740003629,0.9867813758015072,-0.5616512662056111,0.6122440810119402,-0.31562411495297094,0.48064584067733396,-0.14764487163674878,0.6032756589238064,0.12290649617344793,-0.7940075583797972,0.47001070703515896,0.08736139121007475,0.028511564959517077,-0.2239769398589949,-0.6096779615654252,0.2809485057001349,-0.18773610411766428,-0.20375036787364673,0.4331547519298035,0.16463385621169682,0.07751115710526602,-0.06130621590638024,-0.0779686898498871,0.2798452365133883,-0.19431903703183043,-0.30285393316326276,-0.2591939572722516,-0.4496218779789916,-0.8275027558476026,1.0407490822749008,-0.48714160186870525,0.35230940521651494,0.6418633956870076,-0.08692504566229593,-0.4477561061032794,-0.2537076353087532,0.7644847618485058,-0.6547659667417212,0.31844216753883037,-0.726802044664909,0.5819408276054577,0.4880554378303108,-0.12354318124683851,-0.3122187524954895,-0.24632199769171984,-0.5313556727487533,-1.2192692828664926,-0.07114001475263511,0.48902017920117,-0.1302084093895933,0.06620016065400794,-0.6083153787611786,-1.2398785585156877,-1.1333332810690164,0.5162310461677825,-0.7581886344710919,-0.5442188005354981,0.06547951249379749,0.8931396414978852,0.4223821068248826,0.6365594200557709,0.8310991403627154,0.7113658243304913,-0.5828705782854462,